{"learner":{"attributes":{"scikit_learn":"{\"_estimator_type\": \"classifier\"}"},"feature_names":["mean_ocr_confidence","uncertain_tokens_count","missing_mandatory_fields_count","hs_code_invalid_flag","missing_permit_flag","weight_mismatch_flag","quantity_mismatch_flag","desc_similarity_score"],"feature_types":["float","int","int","int","int","int","int","float"],"gradient_booster":{"model":{"cats":{"enc":[],"feature_segments":[],"sorted_idx":[]},"gbtree_model_param":{"num_parallel_tree":"1","num_trees":"300"},"iteration_indptr":[0,3,6,9,12,15,18,21,24,27,30,33,36,39,42,45,48,51,54,57,60,63,66,69,72,75,78,81,84,87,90,93,96,99,102,105,108,111,114,117,120,123,126,129,132,135,138,141,144,147,150,153,156,159,162,165,168,171,174,177,180,183,186,189,192,195,198,201,204,207,210,213,216,219,222,225,228,231,234,237,240,243,246,249,252,255,258,261,264,267,270,273,276,279,282,285,288,291,294,297,300],"tree_info":[0,1,2,0,1,2,0,1,2,0,1,2,0,1,2,0,1,2,0,1,2,0,1,2,0,1,2,0,1,2,0,1,2,0,1,2,0,1,2,0,1,2,0,1,2,0,1,2,0,1,2,0,1,2,0,1,2,0,1,2,0,1,2,0,1,2,0,1,2,0,1,2,0,1,2,0,1,2,0,1,2,0,1,2,0,1,2,0,1,2,0,1,2,0,1,2,0,1,2,0,1,2,0,1,2,0,1,2,0,1,2,0,1,2,0,1,2,0,1,2,0,1,2,0,1,2,0,1,2,0,1,2,0,1,2,0,1,2,0,1,2,0,1,2,0,1,2,0,1,2,0,1,2,0,1,2,0,1,2,0,1,2,0,1,2,0,1,2,0,1,2,0,1,2,0,1,2,0,1,2,0,1,2,0,1,2,0,1,2,0,1,2,0,1,2,0,1,2,0,1,2,0,1,2,0,1,2,0,1,2,0,1,2,0,1,2,0,1,2,0,1,2,0,1,2,0,1,2,0,1,2,0,1,2,0,1,2,0,1,2,0,1,2,0,1,2,0,1,2,0,1,2,0,1,2,0,1,2,0,1,2,0,1,2,0,1,2,0,1,2,0,1,2,0,1,2,0,1,2,0,1,2,0,1,2,0,1,2,0,1,2,0,1,2,0,1,2,0,1,2],"trees":[{"base_weights":[-1.3251609E-7,3.1930652E-1,-2.1856232E-1,5.723404E-1,-2.1804418E-1,8.8382274E-1,-2.178125E-1,1.191645E0,-2.1724226E-1,1.5167547E0,-2.166957E-1,-2.0573546E-1,4.7421798E-1],"categories":[],"categories_nodes":[],"categories_segments":[],"categories_sizes":[],"default_left":[0,0,0,0,0,0,0,0,0,0,0,0,0],"id":0,"left_children":[1,3,-1,5,-1,7,-1,9,-1,11,-1,-1,-1],"loss_changes":[4.0202762E2,3.184769E2,0E0,3.9216513E2,0E0,3.8755212E2,0E0,4.093484E2,0E0,8.0150635E1,0E0,0E0,0E0],"parents":[2147483647,0,0,1,1,3,3,5,5,7,7,9,9],"right_children":[2,4,-1,6,-1,8,-1,10,-1,12,-1,-1,-1],"split_conditions":[1E0,1E0,-2.1856232E-1,1E0,-2.1804418E-1,1E0,-2.178125E-1,1E0,-2.1724226E-1,5.990535E-1,-2.166957E-1,-2.0573546E-1,4.7421798E-1],"split_indices":[2,5,0,3,0,4,0,6,0,7,0,0,0],"split_type":[0,0,0,0,0,0,0,0,0,0,0,0,0],"sum_hessian":[1.7262002E3,1.2005723E3,5.25628E2,9.671037E2,2.3346858E2,7.802425E2,1.8686118E2,6.5509296E2,1.2514951E2,5.60152E2,9.494101E1,1.5535802E1,5.4461615E2],"tree_param":{"num_deleted":"0","num_feature":"8","num_nodes":"13","size_leaf_vector":"1"}},{"base_weights":[-8.6312804E-7,-3.7633985E-1,8.5844415E-1,-5.965363E-1,8.078166E-1,1.2789683E0,-1.9111241E-1,1.0901697E0,-6.405917E-1,1.2319225E0,-1.8771188E-1,1.7603942E0,-1.9030404E-1,1.5158769E0,-1.5577498E-1,5.6132037E-2,-1.929309E-1,1.7028191E0,-1.8532276E-1,6.681135E-1,-1.8878824E-1,1.8180792E0,-1.3050796E-1,-1.22556396E-1,1.9539127E-1,6.624647E-1,-1.8223642E-1,6.214093E-1,-1.1229369E-1],"categories":[],"categories_nodes":[],"categories_segments":[],"categories_sizes":[],"default_left":[0,0,0,0,0,0,0,0,0,0,0,0,0,0,0,0,0,0,0,0,0,0,0,0,0,0,0,0,0],"id":1,"left_children":[1,3,5,7,9,11,-1,13,15,17,-1,19,-1,21,-1,23,-1,25,-1,-1,-1,27,-1,-1,-1,-1,-1,-1,-1],"loss_changes":[4.4918604E2,2.5252531E2,2.6731387E2,6.1306946E1,9.3173485E1,3.060885E2,0E0,1.5265228E1,1.427948E0,1.03502686E2,0E0,2.9668524E2,0E0,1.0793755E1,0E0,1.3105316E0,0E0,1.1112149E2,0E0,0E0,0E0,9.040325E0,0E0,0E0,0E0,0E0,0E0,0E0,0E0],"parents":[2147483647,0,0,1,1,2,2,3,3,4,4,5,5,7,7,8,8,9,9,11,11,13,13,15,15,17,17,21,21],"right_children":[2,4,6,8,10,12,-1,14,16,18,-1,20,-1,22,-1,24,-1,26,-1,-1,-1,28,-1,-1,-1,-1,-1,-1,-1],"split_conditions":[1E0,1E0,1E0,5.990535E-1,1E0,1E0,-1.9111241E-1,1E0,5.9607735E1,1E0,-1.8771188E-1,1E0,-1.9030404E-1,1E0,-1.5577498E-1,8.4866667E-1,-1.929309E-1,1E0,-1.8532276E-1,6.681135E-1,-1.8878824E-1,1E0,-1.3050796E-1,-1.22556396E-1,1.9539127E-1,6.624647E-1,-1.8223642E-1,6.214093E-1,-1.1229369E-1],"split_indices":[2,6,5,7,5,3,0,4,0,4,0,4,0,5,0,7,0,3,0,0,0,3,0,0,0,0,0,0,0],"split_type":[0,0,0,0,0,0,0,0,0,0,0,0,0,0,0,0,0,0,0,0,0,0,0,0,0,0,0,0,0],"sum_hessian":[1.3883833E3,9.6562054E2,4.227627E2,8.146339E2,1.5098668E2,3.3008813E2,9.267458E1,2.0131557E1,7.945023E2,1.1662419E2,3.4362488E1,2.6379282E2,6.62953E1,1.5966408E1,4.1651497E0,2.7767665E0,7.917256E2,9.302168E1,2.3602516E1,2.2075294E2,4.3039883E1,1.3883833E1,2.0825748E0,1.7354791E0,1.0412874E0,7.636108E1,1.6660599E1,1.2495449E1,1.3883833E0],"tree_param":{"num_deleted":"0","num_feature":"8","num_nodes":"29","size_leaf_vector":"1"}},{"base_weights":[8.2880206E-7,-2.7407652E-1,3.2422006E-1,-6.0367835E-1,3.2398278E-1,-2.7829137E-1,3.2345545E-1],"categories":[],"categories_nodes":[],"categories_segments":[],"categories_sizes":[],"default_left":[0,0,0,0,0,0,0],"id":2,"left_children":[1,3,-1,5,-1,-1,-1],"loss_changes":[5.894887E2,7.091494E2,0E0,6.9699176E2,0E0,0E0,0E0],"parents":[2147483647,0,0,1,1,3,3],"right_children":[2,4,-1,6,-1,-1,-1],"split_conditions":[1E0,1E0,3.2422006E-1,1E0,3.2398278E-1,-2.7829137E-1,3.2345545E-1],"split_indices":[5,3,0,4,0,0,0],"split_type":[0,0,0,0,0,0,0],"sum_hessian":[1.9881418E3,1.5865372E3,4.0160468E2,1.2763871E3,3.1015015E2,1.0706144E3,2.0577269E2],"tree_param":{"num_deleted":"0","num_feature":"8","num_nodes":"7","size_leaf_vector":"1"}},{"base_weights":[-4.0644594E-3,2.41543E-1,-1.9686998E-1,4.1825703E-1,-1.9516864E-1,6.193735E-1,-1.9492164E-1,8.024834E-1,-1.94367E-1,9.870979E-1,-1.9618289E-1,-1.8647172E-1,3.0676648E-1],"categories":[],"categories_nodes":[],"categories_segments":[],"categories_sizes":[],"default_left":[0,0,0,0,0,0,0,0,0,0,0,0,0],"id":3,"left_children":[1,3,-1,5,-1,7,-1,9,-1,11,-1,-1,-1],"loss_changes":[2.6050183E2,1.8652054E2,0E0,2.1233736E2,0E0,1.9331735E2,0E0,1.9595853E2,0E0,3.7430054E1,0E0,0E0,0E0],"parents":[2147483647,0,0,1,1,3,3,5,5,7,7,9,9],"right_children":[2,4,-1,6,-1,8,-1,10,-1,12,-1,-1,-1],"split_conditions":[1E0,1E0,-1.9686998E-1,1E0,-1.9516864E-1,1E0,-1.9492164E-1,1E0,-1.94367E-1,5.990535E-1,-1.9618289E-1,-1.8647172E-1,3.0676648E-1],"split_indices":[2,5,0,3,0,4,0,6,0,7,0,0,0],"split_type":[0,0,0,0,0,0,0,0,0,0,0,0,0],"sum_hessian":[1.6243424E3,1.1804233E3,4.4391904E2,9.857005E2,1.9472287E2,8.2984985E2,1.5585066E2,7.254016E2,1.04448204E2,6.4408105E2,8.132057E1,1.3533657E1,6.305474E2],"tree_param":{"num_deleted":"0","num_feature":"8","num_nodes":"13","size_leaf_vector":"1"}},{"base_weights":[-1.5371347E-2,-3.39323E-1,5.64854E-1,-5.555649E-1,5.3684926E-1,7.863096E-1,-1.7871277E-1,7.007988E-1,-6.0194325E-1,7.647243E-1,-1.7496492E-1,1.0044914E0,-1.7782477E-1,9.1468954E-1,-1.416191E-1,1.0530952E-1,-1.8146107E-1,9.8286027E-1,-1.7236955E-1,3.5617286E-1,-1.7616844E-1,1.0528488E0,-1.1702859E-1,-1.09546036E-1,1.8435775E-1,3.5534146E-1,-1.690273E-1,3.483683E-1,-1.0001714E-1],"categories":[],"categories_nodes":[],"categories_segments":[],"categories_sizes":[],"default_left":[0,0,0,0,0,0,0,0,0,0,0,0,0,0,0,0,0,0,0,0,0,0,0,0,0,0,0,0,0],"id":4,"left_children":[1,3,5,7,9,11,-1,13,15,17,-1,19,-1,21,-1,23,-1,25,-1,-1,-1,27,-1,-1,-1,-1,-1,-1,-1],"loss_changes":[2.4990999E2,1.6194388E2,1.2290123E2,4.032251E1,4.3680782E1,1.2108966E2,0E0,6.663393E0,1.4319153E0,4.1812485E1,0E0,1.01383545E2,0E0,4.2593536E0,0E0,1.0810229E0,0E0,3.863272E1,0E0,0E0,0E0,3.3281803E0,0E0,0E0,0E0,0E0,0E0,0E0,0E0],"parents":[2147483647,0,0,1,1,2,2,3,3,4,4,5,5,7,7,8,8,9,9,11,11,13,13,15,15,17,17,21,21],"right_children":[2,4,6,8,10,12,-1,14,16,18,-1,20,-1,22,-1,24,-1,26,-1,-1,-1,28,-1,-1,-1,-1,-1,-1,-1],"split_conditions":[1E0,1E0,1E0,5.990535E-1,1E0,1E0,-1.7871277E-1,1E0,5.9607735E1,1E0,-1.7496492E-1,1E0,-1.7782477E-1,1E0,-1.416191E-1,8.4866667E-1,-1.8146107E-1,1E0,-1.7236955E-1,3.5617286E-1,-1.7616844E-1,1E0,-1.1702859E-1,-1.09546036E-1,1.8435775E-1,3.5534146E-1,-1.690273E-1,3.483683E-1,-1.0001714E-1],"split_indices":[2,6,5,7,5,3,0,4,0,4,0,4,0,5,0,7,0,3,0,0,0,3,0,0,0,0,0,0,0],"split_type":[0,0,0,0,0,0,0,0,0,0,0,0,0,0,0,0,0,0,0,0,0,0,0,0,0,0,0,0,0],"sum_hessian":[1.3275364E3,8.5216846E2,4.7536786E2,6.837764E2,1.6839206E2,3.9946542E2,7.590244E1,2.3840515E1,6.599359E2,1.401883E2,2.8203764E1,3.4513327E2,5.4332146E1,2.034956E1,3.4909544E0,2.5757227E0,6.5736017E2,1.2078211E2,1.9406183E1,3.098162E2,3.531708E1,1.8575726E1,1.7738353E0,1.4858565E0,1.0898662E0,1.0705749E2,1.37246275E1,1.7379297E1,1.196428E0],"tree_param":{"num_deleted":"0","num_feature":"8","num_nodes":"29","size_leaf_vector":"1"}},{"base_weights":[1.4580312E-2,-2.0616099E-1,2.5226784E-1,-4.781366E-1,2.521809E-1,-2.2578034E-1,2.518205E-1],"categories":[],"categories_nodes":[],"categories_segments":[],"categories_sizes":[],"default_left":[0,0,0,0,0,0,0],"id":5,"left_children":[1,3,-1,5,-1,-1,-1],"loss_changes":[3.3829065E2,4.1710992E2,0E0,4.210005E2,0E0,0E0,0E0],"parents":[2147483647,0,0,1,1,3,3],"right_children":[2,4,-1,6,-1,-1,-1],"split_conditions":[1E0,1E0,2.5226784E-1,1E0,2.521809E-1,-2.2578034E-1,2.518205E-1],"split_indices":[5,3,0,4,0,0,0],"split_type":[0,0,0,0,0,0,0],"sum_hessian":[1.8527001E3,1.4627036E3,3.8999646E2,1.1614681E3,3.0123544E2,9.6158356E2,1.9988458E2],"tree_param":{"num_deleted":"0","num_feature":"8","num_nodes":"7","size_leaf_vector":"1"}},{"base_weights":[-5.136643E-3,2.0506373E-1,-1.8287136E-1,3.485437E-1,-1.8088159E-1,5.0595856E-1,-1.8060239E-1,6.4336896E-1,-1.8212631E-1,7.8318447E-1,-1.7949493E-1,-1.7168306E-1,2.429661E-1],"categories":[],"categories_nodes":[],"categories_segments":[],"categories_sizes":[],"default_left":[0,0,0,0,0,0,0,0,0,0,0,0,0],"id":6,"left_children":[1,3,-1,5,-1,7,-1,9,-1,11,-1,-1,-1],"loss_changes":[1.7888544E2,1.2132291E2,0E0,1.3314478E2,0E0,1.16964066E2,0E0,1.1833469E2,0E0,2.256546E1,0E0,0E0,0E0],"parents":[2147483647,0,0,1,1,3,3,5,5,7,7,9,9],"right_children":[2,4,-1,6,-1,8,-1,10,-1,12,-1,-1,-1],"split_conditions":[1E0,1E0,-1.8287136E-1,1E0,-1.8088159E-1,1E0,-1.8060239E-1,1E0,-1.8212631E-1,5.990535E-1,-1.7949493E-1,-1.7168306E-1,2.429661E-1],"split_indices":[2,5,0,3,0,6,0,4,0,7,0,0,0],"split_type":[0,0,0,0,0,0,0,0,0,0,0,0,0],"sum_hessian":[1.4059823E3,1.0436866E3,3.622956E2,8.867855E2,1.5690115E2,7.6119635E2,1.2558919E2,6.779255E2,8.3270874E1,6.096476E2,6.8277916E1,1.1383292E1,5.982643E2],"tree_param":{"num_deleted":"0","num_feature":"8","num_nodes":"13","size_leaf_vector":"1"}},{"base_weights":[-1.7328728E-2,-3.1277394E-1,4.5476162E-1,-5.249925E-1,4.3265042E-1,6.164035E-1,-1.6970035E-1,5.464076E-1,-5.727517E-1,5.998972E-1,-1.6532826E-1,7.67372E-1,-1.6865923E-1,6.978797E-1,-1.2918195E-1,1.5399416E-1,-1.7288901E-1,7.518066E-1,-1.623494E-1,2.6643023E-1,-1.6673209E-1,7.938604E-1,-1.0487904E-1,-9.777865E-2,1.773495E-1,2.6572207E-1,-1.5855135E-1,2.605023E-1,-8.8878885E-2],"categories":[],"categories_nodes":[],"categories_segments":[],"categories_sizes":[],"default_left":[0,0,0,0,0,0,0,0,0,0,0,0,0,0,0,0,0,0,0,0,0,0,0,0,0,0,0,0,0],"id":7,"left_children":[1,3,5,7,9,11,-1,13,15,17,-1,19,-1,21,-1,23,-1,25,-1,-1,-1,27,-1,-1,-1,-1,-1,-1,-1],"loss_changes":[1.6176407E2,1.1306955E2,7.3988014E1,2.8747559E1,2.64287E1,6.909149E1,0E0,3.885684E0,1.4605408E0,2.3990105E1,0E0,5.5202927E1,0E0,2.4245682E0,0E0,9.00543E-1,0E0,2.1128891E1,0E0,0E0,0E0,1.8704634E0,0E0,0E0,0E0,0E0,0E0,0E0,0E0],"parents":[2147483647,0,0,1,1,2,2,3,3,4,4,5,5,7,7,8,8,9,9,11,11,13,13,15,15,17,17,21,21],"right_children":[2,4,6,8,10,12,-1,14,16,18,-1,20,-1,22,-1,24,-1,26,-1,-1,-1,28,-1,-1,-1,-1,-1,-1,-1],"split_conditions":[1E0,1E0,1E0,5.990535E-1,1E0,1E0,-1.6970035E-1,1E0,5.9607735E1,1E0,-1.6532826E-1,1E0,-1.6865923E-1,1E0,-1.2918195E-1,8.4866667E-1,-1.7288901E-1,1E0,-1.623494E-1,2.6643023E-1,-1.6673209E-1,1E0,-1.0487904E-1,-9.777865E-2,1.773495E-1,2.6572207E-1,-1.5855135E-1,2.605023E-1,-8.8878885E-2],"split_indices":[2,6,5,7,5,3,0,4,0,4,0,4,0,5,0,7,0,3,0,0,0,3,0,0,0,0,0,0,0],"split_type":[0,0,0,0,0,0,0,0,0,0,0,0,0,0,0,0,0,0,0,0,0,0,0,0,0,0,0,0,0],"sum_hessian":[1.1577717E3,7.1232166E2,4.4545013E2,5.546977E2,1.5762392E2,3.8487903E2,6.057111E1,2.3225721E1,5.31472E2,1.3505359E2,2.2570322E1,3.4148648E2,4.3392532E1,2.035558E1,2.8701408E0,2.3738663E0,5.2909814E2,1.1948739E2,1.5566205E1,3.1323462E2,2.8251883E1,1.886875E1,1.4868308E0,1.2529004E0,1.120966E0,1.0845055E2,1.1036844E1,1.785246E1,1.0162889E0],"tree_param":{"num_deleted":"0","num_feature":"8","num_nodes":"29","size_leaf_vector":"1"}},{"base_weights":[1.7135508E-2,-1.7608619E-1,2.1559405E-1,-4.1781318E-1,2.1554945E-1,-1.9976543E-1,2.1519724E-1],"categories":[],"categories_nodes":[],"categories_segments":[],"categories_sizes":[],"default_left":[0,0,0,0,0,0,0],"id":8,"left_children":[1,3,-1,5,-1,-1,-1],"loss_changes":[2.1613484E2,2.706628E2,0E0,2.7782776E2,0E0,0E0,0E0],"parents":[2147483647,0,0,1,1,3,3],"right_children":[2,4,-1,6,-1,-1,-1],"split_conditions":[1E0,1E0,2.1559405E-1,1E0,2.1554945E-1,-1.9976543E-1,2.1519724E-1],"split_indices":[5,3,0,4,0,0,0],"split_type":[0,0,0,0,0,0,0],"sum_hessian":[1.5926019E3,1.2492595E3,3.4334247E2,9.839247E2,2.653348E2,8.07802E2,1.7612271E2],"tree_param":{"num_deleted":"0","num_feature":"8","num_nodes":"7","size_leaf_vector":"1"}},{"base_weights":[-5.6525613E-3,1.8376619E-1,-1.7327318E-1,3.089703E-1,-1.713118E-1,4.4348988E-1,-1.709795E-1,5.6074387E-1,-1.7213054E-1,6.7626286E-1,-1.6965252E-1,-1.5991955E-1,2.0968595E-1],"categories":[],"categories_nodes":[],"categories_segments":[],"categories_sizes":[],"default_left":[0,0,0,0,0,0,0,0,0,0,0,0,0],"id":9,"left_children":[1,3,-1,5,-1,7,-1,9,-1,11,-1,-1,-1],"loss_changes":[1.25856346E2,8.265411E1,0E0,8.883215E1,0E0,7.789134E1,0E0,7.6313675E1,0E0,1.4909897E1,0E0,0E0,0E0],"parents":[2147483647,0,0,1,1,3,3,5,5,7,7,9,9],"right_children":[2,4,-1,6,-1,8,-1,10,-1,12,-1,-1,-1],"split_conditions":[1E0,1E0,-1.7327318E-1,1E0,-1.713118E-1,1E0,-1.709795E-1,1E0,-1.7213054E-1,5.990535E-1,-1.6965252E-1,-1.5991955E-1,2.0968595E-1],"split_indices":[2,5,0,3,0,6,0,4,0,7,0,0,0],"split_type":[0,0,0,0,0,0,0,0,0,0,0,0,0],"sum_hessian":[1.159772E3,8.7173584E2,2.880361E2,7.482155E2,1.23520325E2,6.493285E2,9.888701E1,5.826216E2,6.670693E1,5.2878406E2,5.3837505E1,9.3244505E0,5.194596E2],"tree_param":{"num_deleted":"0","num_feature":"8","num_nodes":"13","size_leaf_vector":"1"}},{"base_weights":[-1.7358508E-2,-2.9388893E-1,3.9573976E-1,-5.021841E-1,3.7582853E-1,5.288153E-1,-1.6295983E-1,4.6071824E-1,-5.508885E-1,5.138591E-1,-1.5768737E-1,6.497695E-1,-1.6169192E-1,5.8341074E-1,-1.1781796E-1,2.000137E-1,-1.6659164E-1,6.361066E-1,-1.5416694E-1,2.233225E-1,-1.593659E-1,1.984225E-1,-9.377106E-2,-8.7045416E-2,1.7245078E-1,2.2247899E-1,-1.4973068E-1],"categories":[],"categories_nodes":[],"categories_segments":[],"categories_sizes":[],"default_left":[0,0,0,0,0,0,0,0,0,0,0,0,0,0,0,0,0,0,0,0,0,0,0,0,0,0,0],"id":10,"left_children":[1,3,5,7,9,11,-1,13,15,17,-1,19,-1,21,-1,23,-1,25,-1,-1,-1,-1,-1,-1,-1,-1,-1],"loss_changes":[1.1001175E2,8.0657E1,4.8540474E1,2.0908432E1,1.7368746E1,4.4100723E1,0E0,2.5064692E0,1.5029907E0,1.53629875E1,0E0,3.4454834E1,0E0,1.5637164E0,0E0,7.5275344E-1,0E0,1.3231762E1,0E0,0E0,0E0,0E0,0E0,0E0,0E0,0E0,0E0],"parents":[2147483647,0,0,1,1,2,2,3,3,4,4,5,5,7,7,8,8,9,9,11,11,13,13,15,15,17,17],"right_children":[2,4,6,8,10,12,-1,14,16,18,-1,20,-1,22,-1,24,-1,26,-1,-1,-1,-1,-1,-1,-1,-1,-1],"split_conditions":[1E0,1E0,1E0,5.990535E-1,1E0,1E0,-1.6295983E-1,1E0,5.9607735E1,1E0,-1.5768737E-1,1E0,-1.6169192E-1,1E0,-1.1781796E-1,8.4866667E-1,-1.6659164E-1,1E0,-1.5416694E-1,2.233225E-1,-1.593659E-1,1.984225E-1,-9.377106E-2,-8.7045416E-2,1.7245078E-1,2.2247899E-1,-1.4973068E-1],"split_indices":[2,6,5,7,5,3,0,4,0,4,0,4,0,5,0,7,0,3,0,0,0,0,0,0,0,0,0],"split_type":[0,0,0,0,0,0,0,0,0,0,0,0,0,0,0,0,0,0,0,0,0,0,0,0,0,0,0],"sum_hessian":[9.610185E2,5.758378E2,3.8518066E2,4.3941986E2,1.3641798E2,3.3774847E2,4.7432198E1,2.0748829E1,4.1867102E2,1.1867624E2,1.7741745E1,3.0373434E2,3.4014145E1,1.8417505E1,2.3313236E0,2.1893582E0,4.1648166E2,1.0640121E2,1.2275026E1,2.8154254E2,2.2191805E1,1.7183445E1,1.2340598E0,1.0465944E0,1.1427639E0,9.767174E1,8.72947E0],"tree_param":{"num_deleted":"0","num_feature":"8","num_nodes":"27","size_leaf_vector":"1"}},{"base_weights":[1.7780343E-2,-1.5881895E-1,1.9405976E-1,-3.820078E-1,1.9402449E-1,-1.8408549E-1,1.9361833E-1],"categories":[],"categories_nodes":[],"categories_segments":[],"categories_sizes":[],"default_left":[0,0,0,0,0,0,0],"id":11,"left_children":[1,3,-1,5,-1,-1,-1],"loss_changes":[1.4544057E2,1.8404477E2,0E0,1.9102759E2,0E0,0E0,0E0],"parents":[2147483647,0,0,1,1,3,3],"right_children":[2,4,-1,6,-1,-1,-1],"split_conditions":[1E0,1E0,1.9405976E-1,1E0,1.9402449E-1,-1.8408549E-1,1.9361833E-1],"split_indices":[5,3,0,4,0,0,0],"split_type":[0,0,0,0,0,0,0],"sum_hessian":[1.3072179E3,1.02127045E3,2.859474E2,8.001173E2,2.2115315E2,6.5325476E2,1.468625E2],"tree_param":{"num_deleted":"0","num_feature":"8","num_nodes":"7","size_leaf_vector":"1"}},{"base_weights":[-6.1784615E-3,1.6984737E-1,-1.6650544E-1,2.8379068E-1,-1.6458693E-1,4.0458423E-1,-1.6417187E-1,5.100385E-1,-1.6479823E-1,6.11774E-1,-1.625283E-1,-1.5057115E-1,1.8978277E-1],"categories":[],"categories_nodes":[],"categories_segments":[],"categories_sizes":[],"default_left":[0,0,0,0,0,0,0,0,0,0,0,0,0],"id":12,"left_children":[1,3,-1,5,-1,7,-1,9,-1,11,-1,-1,-1],"loss_changes":[8.9808044E1,5.777869E1,0E0,6.12733E1,0E0,5.3753983E1,0E0,5.1606598E1,0E0,1.0466568E1,0E0,0E0,0E0],"parents":[2147483647,0,0,1,1,3,3,5,5,7,7,9,9],"right_children":[2,4,-1,6,-1,8,-1,10,-1,12,-1,-1,-1],"split_conditions":[1E0,1E0,-1.6650544E-1,1E0,-1.6458693E-1,1E0,-1.6417187E-1,1E0,-1.6479823E-1,5.990535E-1,-1.625283E-1,-1.5057115E-1,1.8978277E-1],"split_indices":[2,5,0,3,0,6,0,4,0,7,0,0,0],"split_type":[0,0,0,0,0,0,0,0,0,0,0,0,0],"sum_hessian":[9.276184E2,7.02879E2,2.2473936E2,6.07189E2,9.569002E1,5.305802E2,7.660879E1,4.7818277E2,5.239744E1,4.3639108E2,4.1791683E1,7.590229E0,4.2880087E2],"tree_param":{"num_deleted":"0","num_feature":"8","num_nodes":"13","size_leaf_vector":"1"}},{"base_weights":[-1.6959539E-2,-2.798942E-1,3.5971746E-1,-4.843383E-1,3.403929E-1,4.7667563E-1,-1.5770602E-1,3.998812E-1,-5.3425914E-1,4.6185848E-1,-1.5122768E-1,5.8135724E-1,-1.5612862E-1,5.043269E-1,-1.0712722E-1,7.263104E-2,-1.6196229E-1,5.680691E-1,-1.4700158E-1,1.9870883E-1,-1.5326585E-1,1.726088E-1,-8.783821E-2,1.9764712E-1,-1.4177571E-1],"categories":[],"categories_nodes":[],"categories_segments":[],"categories_sizes":[],"default_left":[0,0,0,0,0,0,0,0,0,0,0,0,0,0,0,0,0,0,0,0,0,0,0,0,0],"id":13,"left_children":[1,3,5,7,9,11,-1,13,15,17,-1,19,-1,21,-1,-1,-1,23,-1,-1,-1,-1,-1,-1,-1],"loss_changes":[7.675184E1,5.8035385E1,3.3242107E1,1.5381851E1,1.1896784E1,2.9730942E1,0E0,1.6771944E0,1.5505371E0,1.0381454E1,0E0,2.2955452E1,0E0,1.1341476E0,0E0,0E0,0E0,8.845835E0,0E0,0E0,0E0,0E0,0E0,0E0,0E0],"parents":[2147483647,0,0,1,1,2,2,3,3,4,4,5,5,7,7,8,8,9,9,11,11,13,13,17,17],"right_children":[2,4,6,8,10,12,-1,14,16,18,-1,20,-1,22,-1,-1,-1,24,-1,-1,-1,-1,-1,-1,-1],"split_conditions":[1E0,1E0,1E0,5.990535E-1,1E0,1E0,-1.5770602E-1,1E0,5.9607735E1,1E0,-1.5122768E-1,1E0,-1.5612862E-1,1E0,-1.0712722E-1,7.263104E-2,-1.6196229E-1,1E0,-1.4700158E-1,1.9870883E-1,-1.5326585E-1,1.726088E-1,-8.783821E-2,1.9764712E-1,-1.4177571E-1],"split_indices":[2,6,5,7,5,3,0,4,0,4,0,4,0,3,0,0,0,3,0,0,0,0,0,0,0],"split_type":[0,0,0,0,0,0,0,0,0,0,0,0,0,0,0,0,0,0,0,0,0,0,0,0,0],"sum_hessian":[7.729302E2,4.5534158E2,3.175886E2,3.4263098E2,1.12710594E2,2.809393E2,3.6649277E1,1.7935713E1,3.2469528E2,9.893367E1,1.3776925E1,2.5462437E2,2.6314934E1,1.6054323E1,1.8813897E0,2.0291052E0,3.2266617E2,8.936533E1,9.56834E0,2.3741055E2,1.7213821E1,1.4996136E1,1.0581878E0,8.2534485E1,6.830845E0],"tree_param":{"num_deleted":"0","num_feature":"8","num_nodes":"25","size_leaf_vector":"1"}},{"base_weights":[1.808453E-2,-1.4764738E-1,1.8035972E-1,-3.5884774E-1,1.803683E-1,-1.7387816E-1,1.7981733E-1],"categories":[],"categories_nodes":[],"categories_segments":[],"categories_sizes":[],"default_left":[0,0,0,0,0,0,0],"id":14,"left_children":[1,3,-1,5,-1,-1,-1],"loss_changes":[1.0088876E2,1.2880206E2,0E0,1.3462085E2,0E0,0E0,0E0],"parents":[2147483647,0,0,1,1,3,3],"right_children":[2,4,-1,6,-1,-1,-1],"split_conditions":[1E0,1E0,1.8035972E-1,1E0,1.803683E-1,-1.7387816E-1,1.7981733E-1],"split_indices":[5,3,0,4,0,0,0],"split_type":[0,0,0,0,0,0,0],"sum_hessian":[1.042039E3,8.120003E2,2.3003868E2,6.337802E2,1.7822011E2,5.1543616E2,1.18344055E2],"tree_param":{"num_deleted":"0","num_feature":"8","num_nodes":"7","size_leaf_vector":"1"}},{"base_weights":[-6.8779043E-3,1.5997492E-1,-1.6161434E-1,2.6644316E-1,-1.5964702E-1,3.7837708E-1,-1.591292E-1,4.7633156E-1,-1.5919648E-1,5.694998E-1,-1.57045E-1,-1.4230956E-1,1.7684147E-1],"categories":[],"categories_nodes":[],"categories_segments":[],"categories_sizes":[],"default_left":[0,0,0,0,0,0,0,0,0,0,0,0,0],"id":15,"left_children":[1,3,-1,5,-1,7,-1,9,-1,11,-1,-1,-1],"loss_changes":[6.46641E1,4.1018803E1,0E0,4.3142746E1,0E0,3.7893017E1,0E0,3.589332E1,0E0,7.5769577E0,0E0,0E0,0E0],"parents":[2147483647,0,0,1,1,3,3,5,5,7,7,9,9],"right_children":[2,4,-1,6,-1,8,-1,10,-1,12,-1,-1,-1],"split_conditions":[1E0,1E0,-1.6161434E-1,1E0,-1.5964702E-1,1E0,-1.591292E-1,1E0,-1.5919648E-1,5.990535E-1,-1.57045E-1,-1.4230956E-1,1.7684147E-1],"split_indices":[2,5,0,3,0,6,0,4,0,7,0,0,0],"split_type":[0,0,0,0,0,0,0,0,0,0,0,0,0],"sum_hessian":[7.267334E2,5.5371564E2,1.7301775E2,4.804281E2,7.328757E1,4.2171634E2,5.8711765E1,3.8112363E2,4.0592697E1,3.4902954E2,3.209409E1,6.12531E0,3.4290424E2],"tree_param":{"num_deleted":"0","num_feature":"8","num_nodes":"13","size_leaf_vector":"1"}},{"base_weights":[-1.6519623E-2,-2.6915455E-1,3.3594015E-1,-4.698813E-1,3.1622213E-1,4.429501E-1,-1.5337062E-1,3.5404155E-1,-5.211012E-1,4.2741537E-1,-1.4534602E-1,5.3787893E-1,-1.5138678E-1,1.3416535E-1,-9.875136E-2,8.241988E-2,-1.5852535E-1,5.2410483E-1,-1.4026217E-1,1.8329191E-1,-1.4783661E-1,1.819374E-1,-1.3412105E-1],"categories":[],"categories_nodes":[],"categories_segments":[],"categories_sizes":[],"default_left":[0,0,0,0,0,0,0,0,0,0,0,0,0,0,0,0,0,0,0,0,0,0,0],"id":16,"left_children":[1,3,5,7,9,11,-1,13,15,17,-1,19,-1,-1,-1,-1,-1,21,-1,-1,-1,-1,-1],"loss_changes":[5.4369793E1,4.1935204E1,2.3339527E1,1.1377243E1,8.345202E0,2.0681213E1,0E0,1.1732888E0,1.6015015E0,7.2361174E0,0E0,1.5874435E1,0E0,0E0,0E0,0E0,0E0,6.1404133E0,0E0,0E0,0E0,0E0,0E0],"parents":[2147483647,0,0,1,1,2,2,3,3,4,4,5,5,7,7,8,8,9,9,11,11,17,17],"right_children":[2,4,6,8,10,12,-1,14,16,18,-1,20,-1,-1,-1,-1,-1,22,-1,-1,-1,-1,-1],"split_conditions":[1E0,1E0,1E0,5.990535E-1,1E0,1E0,-1.5337062E-1,1E0,5.9607735E1,1E0,-1.4534602E-1,1E0,-1.5138678E-1,1.3416535E-1,-9.875136E-2,8.241988E-2,-1.5852535E-1,1E0,-1.4026217E-1,1.8329191E-1,-1.4783661E-1,1.819374E-1,-1.3412105E-1],"split_indices":[2,6,5,7,5,3,0,3,0,4,0,4,0,0,0,0,0,3,0,0,0,0,0],"split_type":[0,0,0,0,0,0,0,0,0,0,0,0,0,0,0,0,0,0,0,0,0,0,0],"sum_hessian":[6.085816E2,3.546285E2,2.539531E2,2.642232E2,9.040531E1,2.2589641E2,2.8056684E1,1.5118296E1,2.491049E2,7.979105E1,1.061426E1,2.0571956E2,2.0176847E1,1.3607879E1,1.5104167E0,1.9363703E0,2.4716853E2,7.238507E1,7.4059777E0,1.924765E2,1.3243061E1,6.7073E1,5.3120713E0],"tree_param":{"num_deleted":"0","num_feature":"8","num_nodes":"23","size_leaf_vector":"1"}},{"base_weights":[1.8482316E-2,-1.3998E-1,1.7120905E-1,-3.4291717E-1,1.7113742E-1,-1.6691883E-1,1.7048866E-1],"categories":[],"categories_nodes":[],"categories_segments":[],"categories_sizes":[],"default_left":[0,0,0,0,0,0,0],"id":17,"left_children":[1,3,-1,5,-1,-1,-1],"loss_changes":[7.14547E1,9.168791E1,0E0,9.645474E1,0E0,0E0,0E0],"parents":[2147483647,0,0,1,1,3,3],"right_children":[2,4,-1,6,-1,-1,-1],"split_conditions":[1E0,1E0,1.7120905E-1,1E0,1.7113742E-1,-1.6691883E-1,1.7048866E-1],"split_indices":[5,3,0,4,0,0,0],"split_type":[0,0,0,0,0,0,0],"sum_hessian":[8.1466364E2,6.3359503E2,1.8106859E2,4.9322287E2,1.4037218E2,3.999192E2,9.330368E1],"tree_param":{"num_deleted":"0","num_feature":"8","num_nodes":"7","size_leaf_vector":"1"}},{"base_weights":[-7.885334E-3,1.5229659E-1,-1.5798272E-1,2.5349715E-1,-1.5583847E-1,3.593031E-1,-1.551789E-1,4.5216656E-1,-1.5468013E-1,5.396089E-1,-1.5251215E-1,-1.3517265E-1,1.6789806E-1],"categories":[],"categories_nodes":[],"categories_segments":[],"categories_sizes":[],"default_left":[0,0,0,0,0,0,0,0,0,0,0,0,0],"id":18,"left_children":[1,3,-1,5,-1,7,-1,9,-1,11,-1,-1,-1],"loss_changes":[4.681639E1,2.940078E1,0E0,3.0754684E1,0E0,2.7059761E1,0E0,2.5390995E1,0E0,5.703644E0,0E0,0E0,0E0],"parents":[2147483647,0,0,1,1,3,3,5,5,7,7,9,9],"right_children":[2,4,-1,6,-1,8,-1,10,-1,12,-1,-1,-1],"split_conditions":[1E0,1E0,-1.5798272E-1,1E0,-1.5583847E-1,1E0,-1.551789E-1,1E0,-1.5468013E-1,5.990535E-1,-1.5251215E-1,-1.3517265E-1,1.6789806E-1],"split_indices":[2,5,0,3,0,6,0,4,0,7,0,0,0],"split_type":[0,0,0,0,0,0,0,0,0,0,0,0,0],"sum_hessian":[5.614756E2,4.2954E2,1.3193558E2,3.7384308E2,5.5696926E1,3.291877E2,4.465535E1,2.9803687E2,3.115086E1,2.735707E2,2.4466164E1,5.0037103E0,2.68567E2],"tree_param":{"num_deleted":"0","num_feature":"8","num_nodes":"13","size_leaf_vector":"1"}},{"base_weights":[-1.6063182E-2,-2.6013225E-1,3.1926084E-1,-4.5678112E-1,2.9840195E-1,4.1978216E-1,-1.495251E-1,3.1182656E-1,-5.101469E-1,4.0284717E-1,-1.3958699E-1,5.0853777E-1,-1.4702457E-1,1.2164137E-1,-9.2733845E-2,9.117967E-2,-1.5592815E-1,4.9361306E-1,-1.3351935E-1,1.7304446E-1,-1.4262493E-1,1.7130496E-1,-1.263862E-1],"categories":[],"categories_nodes":[],"categories_segments":[],"categories_sizes":[],"default_left":[0,0,0,0,0,0,0,0,0,0,0,0,0,0,0,0,0,0,0,0,0,0,0],"id":19,"left_children":[1,3,5,7,9,11,-1,13,15,17,-1,19,-1,-1,-1,-1,-1,21,-1,-1,-1,-1,-1],"loss_changes":[3.8842472E1,3.0301395E1,1.6643705E1,8.506886E0,5.9400787E0,1.4672216E1,0E0,9.2974496E-1,1.650322E0,5.143675E0,0E0,1.1239429E1,0E0,0E0,0E0,0E0,0E0,4.3668585E0,0E0,0E0,0E0,0E0,0E0],"parents":[2147483647,0,0,1,1,2,2,3,3,4,4,5,5,7,7,8,8,9,9,11,11,17,17],"right_children":[2,4,6,8,10,12,-1,14,16,18,-1,20,-1,-1,-1,-1,-1,22,-1,-1,-1,-1,-1],"split_conditions":[1E0,1E0,1E0,5.990535E-1,1E0,1E0,-1.495251E-1,1E0,5.9607735E1,1E0,-1.3958699E-1,1E0,-1.4702457E-1,1.2164137E-1,-9.2733845E-2,9.117967E-2,-1.5592815E-1,1E0,-1.3351935E-1,1.7304446E-1,-1.4262493E-1,1.7130496E-1,-1.263862E-1],"split_indices":[2,6,5,7,5,3,0,4,0,4,0,4,0,0,0,0,0,3,0,0,0,0,0],"split_type":[0,0,0,0,0,0,0,0,0,0,0,0,0,0,0,0,0,0,0,0,0,0,0],"sum_hessian":[4.7258707E2,2.7363977E2,1.9894731E2,2.0251901E2,7.112076E1,1.7760059E2,2.1346733E1,1.2833899E1,1.896851E2,6.2979904E1,8.140856E0,1.6221762E2,1.5382958E1,1.1453574E1,1.3803246E0,1.856565E0,1.8782854E2,5.7267475E1,5.712428E0,1.520786E2,1.0139025E1,5.3146946E1,4.120529E0],"tree_param":{"num_deleted":"0","num_feature":"8","num_nodes":"23","size_leaf_vector":"1"}},{"base_weights":[1.912124E-2,-1.3418841E-1,1.6482772E-1,-3.312275E-1,1.6466428E-1,-1.6202533E-1,1.6391931E-1],"categories":[],"categories_nodes":[],"categories_segments":[],"categories_sizes":[],"default_left":[0,0,0,0,0,0,0],"id":20,"left_children":[1,3,-1,5,-1,-1,-1],"loss_changes":[5.1277016E1,6.604585E1,0E0,7.002681E1,0E0,0E0,0E0],"parents":[2147483647,0,0,1,1,3,3],"right_children":[2,4,-1,6,-1,-1,-1],"split_conditions":[1E0,1E0,1.6482772E-1,1E0,1.6466428E-1,-1.6202533E-1,1.6391931E-1],"split_indices":[5,3,0,4,0,0,0],"split_type":[0,0,0,0,0,0,0],"sum_hessian":[6.2880066E2,4.883631E2,1.4043756E2,3.7942792E2,1.0893519E2,3.068003E2,7.262762E1],"tree_param":{"num_deleted":"0","num_feature":"8","num_nodes":"7","size_leaf_vector":"1"}},{"base_weights":[-9.218349E-3,1.4585494E-1,-1.5519154E-1,2.4315317E-1,-1.5271522E-1,3.4448698E-1,-1.5186574E-1,4.337409E-1,-1.5078132E-1,5.1724136E-1,-1.484593E-1,-1.2829846E-1,1.6135201E-1],"categories":[],"categories_nodes":[],"categories_segments":[],"categories_sizes":[],"default_left":[0,0,0,0,0,0,0,0,0,0,0,0,0],"id":21,"left_children":[1,3,-1,5,-1,7,-1,9,-1,11,-1,-1,-1],"loss_changes":[3.401084E1,2.1200672E1,0E0,2.2094233E1,0E0,1.9487757E1,0E0,1.8176159E1,0E0,4.3667183E0,0E0,0E0,0E0],"parents":[2147483647,0,0,1,1,3,3,5,5,7,7,9,9],"right_children":[2,4,-1,6,-1,8,-1,10,-1,12,-1,-1,-1],"split_conditions":[1E0,1E0,-1.5519154E-1,1E0,-1.5271522E-1,1E0,-1.5186574E-1,1E0,-1.5078132E-1,5.990535E-1,-1.484593E-1,-1.2829846E-1,1.6135201E-1],"split_indices":[2,5,0,3,0,6,0,4,0,7,0,0,0],"split_type":[0,0,0,0,0,0,0,0,0,0,0,0,0],"sum_hessian":[4.2970306E2,3.2976758E2,9.99355E1,2.8765924E2,4.210833E1,2.5386998E2,3.3789253E1,2.3011214E2,2.3757837E1,2.1153394E2,1.8578203E1,4.0913997E0,2.0744254E2],"tree_param":{"num_deleted":"0","num_feature":"8","num_nodes":"13","size_leaf_vector":"1"}},{"base_weights":[-1.5630977E-2,-2.522339E-1,3.068558E-1,-4.4459203E-1,2.8419253E-1,4.0299454E-1,-1.4583129E-1,2.7636993E-1,-5.003407E-1,3.8401788E-1,-1.3360913E-1,4.8774123E-1,-1.4269114E-1,1.0811735E-1,-8.431186E-2,9.8913E-2,-1.5390988E-1,4.7104344E-1,-1.2647861E-1,1.6592284E-1,-1.372803E-1,1.636798E-1,-1.18348025E-1],"categories":[],"categories_nodes":[],"categories_segments":[],"categories_sizes":[],"default_left":[0,0,0,0,0,0,0,0,0,0,0,0,0,0,0,0,0,0,0,0,0,0,0],"id":22,"left_children":[1,3,5,7,9,11,-1,13,15,17,-1,19,-1,-1,-1,-1,-1,21,-1,-1,-1,-1,-1],"loss_changes":[2.788876E1,2.1877071E1,1.1989511E1,6.3900204E0,4.267406E0,1.0546429E1,0E0,6.543222E-1,1.6939697E0,3.7050266E0,0E0,8.086548E0,0E0,0E0,0E0,0E0,0E0,3.158514E0,0E0,0E0,0E0,0E0,0E0],"parents":[2147483647,0,0,1,1,2,2,3,3,4,4,5,5,7,7,8,8,9,9,11,11,17,17],"right_children":[2,4,6,8,10,12,-1,14,16,18,-1,20,-1,-1,-1,-1,-1,22,-1,-1,-1,-1,-1],"split_conditions":[1E0,1E0,1E0,5.990535E-1,1E0,1E0,-1.4583129E-1,1E0,5.9607735E1,1E0,-1.3360913E-1,1E0,-1.4269114E-1,1.0811735E-1,-8.431186E-2,9.8913E-2,-1.5390988E-1,1E0,-1.2647861E-1,1.6592284E-1,-1.372803E-1,1.636798E-1,-1.18348025E-1],"split_indices":[2,6,5,7,5,3,0,3,0,4,0,4,0,0,0,0,0,3,0,0,0,0,0],"split_type":[0,0,0,0,0,0,0,0,0,0,0,0,0,0,0,0,0,0,0,0,0,0,0],"sum_hessian":[3.6349387E2,2.0979143E2,1.5370245E2,1.545443E2,5.5247124E1,1.3752113E2,1.6181322E1,1.0808422E1,1.4373587E2,4.9014133E1,6.2329874E0,1.25829384E2,1.1691743E1,9.699778E0,1.1086444E0,1.788574E0,1.419473E2,4.4610435E1,4.4036984E0,1.1808332E2,7.7460704E0,4.1412846E1,3.1975894E0],"tree_param":{"num_deleted":"0","num_feature":"8","num_nodes":"23","size_leaf_vector":"1"}},{"base_weights":[2.0052154E-2,-1.2952772E-1,1.6021457E-1,-3.2262975E-1,1.5997994E-1,-1.5848467E-1,1.5899347E-1],"categories":[],"categories_nodes":[],"categories_segments":[],"categories_sizes":[],"default_left":[0,0,0,0,0,0,0],"id":23,"left_children":[1,3,-1,5,-1,-1,-1],"loss_changes":[3.7136917E1,4.8071716E1,0E0,5.1206093E1,0E0,0E0,0E0],"parents":[2147483647,0,0,1,1,3,3],"right_children":[2,4,-1,6,-1,-1,-1],"split_conditions":[1E0,1E0,1.6021457E-1,1E0,1.5997994E-1,-1.5848467E-1,1.5899347E-1],"split_indices":[5,3,0,4,0,0,0],"split_type":[0,0,0,0,0,0,0],"sum_hessian":[4.8112857E2,3.732545E2,1.0787408E2,2.8944055E2,8.381395E1,2.3349985E2,5.594071E1],"tree_param":{"num_deleted":"0","num_feature":"8","num_nodes":"7","size_leaf_vector":"1"}},{"base_weights":[-1.0984484E-2,1.3990167E-1,-1.5294223E-1,2.3412143E-1,-1.49952E-1,3.3201206E-1,-1.4885782E-1,4.1858137E-1,-1.471424E-1,4.992124E-1,-1.4451557E-1,-1.2163056E-1,1.5624417E-1],"categories":[],"categories_nodes":[],"categories_segments":[],"categories_sizes":[],"default_left":[0,0,0,0,0,0,0,0,0,0,0,0,0],"id":24,"left_children":[1,3,-1,5,-1,7,-1,9,-1,11,-1,-1,-1],"loss_changes":[2.474578E1,1.533573E1,0E0,1.5946493E1,0E0,1.4108156E1,0E0,1.3104092E1,0E0,3.3989754E0,0E0,0E0,0E0],"parents":[2147483647,0,0,1,1,3,3,5,5,7,7,9,9],"right_children":[2,4,-1,6,-1,8,-1,10,-1,12,-1,-1,-1],"split_conditions":[1E0,1E0,-1.5294223E-1,1E0,-1.49952E-1,1E0,-1.4885782E-1,1E0,-1.471424E-1,5.990535E-1,-1.4451557E-1,-1.2163056E-1,1.5624417E-1],"split_indices":[2,5,0,3,0,6,0,4,0,7,0,0,0],"split_type":[0,0,0,0,0,0,0,0,0,0,0,0,0],"sum_hessian":[3.2683237E2,2.5148239E2,7.534996E1,2.1975185E2,3.1730543E1,1.9425894E2,2.5492905E1,1.76204E2,1.8054949E1,1.6212918E2,1.407482E1,3.3666854E0,1.587625E2],"tree_param":{"num_deleted":"0","num_feature":"8","num_nodes":"13","size_leaf_vector":"1"}},{"base_weights":[-1.5190713E-2,-2.4471019E-1,2.9700613E-1,-4.322769E-1,2.7190217E-1,3.901174E-1,-1.4200957E-1,2.4454355E-1,-4.9078828E-1,3.6844847E-1,-1.2717158E-1,4.7225964E-1,-1.3810162E-1,9.894429E-2,-7.899507E-2,1.05653875E-1,-1.522739E-1,4.531519E-1,-1.1897472E-1,1.6077088E-1,-1.3154072E-1,1.5787289E-1,-1.0992719E-1],"categories":[],"categories_nodes":[],"categories_segments":[],"categories_sizes":[],"default_left":[0,0,0,0,0,0,0,0,0,0,0,0,0,0,0,0,0,0,0,0,0,0,0],"id":25,"left_children":[1,3,5,7,9,11,-1,13,15,17,-1,19,-1,-1,-1,-1,-1,21,-1,-1,-1,-1,-1],"loss_changes":[2.0060787E1,1.5748274E1,8.694682E0,4.821869E0,3.0838227E0,7.649927E0,0E0,5.2487487E-1,1.7302933E0,2.6943278E0,0E0,5.8872185E0,0E0,0E0,0E0,0E0,0E0,2.3136463E0,0E0,0E0,0E0,0E0,0E0],"parents":[2147483647,0,0,1,1,2,2,3,3,4,4,5,5,7,7,8,8,9,9,11,11,17,17],"right_children":[2,4,6,8,10,12,-1,14,16,18,-1,20,-1,-1,-1,-1,-1,22,-1,-1,-1,-1,-1],"split_conditions":[1E0,1E0,1E0,5.990535E-1,1E0,1E0,-1.4200957E-1,1E0,5.9607735E1,1E0,-1.2717158E-1,1E0,-1.3810162E-1,9.894429E-2,-7.899507E-2,1.05653875E-1,-1.522739E-1,1E0,-1.1897472E-1,1.6077088E-1,-1.3154072E-1,1.5787289E-1,-1.0992719E-1],"split_indices":[2,6,5,7,5,3,0,4,0,4,0,4,0,0,0,0,0,3,0,0,0,0,0],"split_type":[0,0,0,0,0,0,0,0,0,0,0,0,0,0,0,0,0,0,0,0,0,0,0],"sum_hessian":[2.779482E2,1.6030908E2,1.1763914E2,1.1772855E2,4.258052E1,1.0539422E2,1.2244917E1,9.114832E0,1.0861372E2,3.780534E1,4.775182E0,9.651674E1,8.877479E0,8.10463E0,1.0102017E0,1.7311599E0,1.0688256E2,3.4403847E1,3.401491E0,9.059721E1,5.9195232E0,3.1915485E1,2.4883626E0],"tree_param":{"num_deleted":"0","num_feature":"8","num_nodes":"23","size_leaf_vector":"1"}},{"base_weights":[2.1350626E-2,-1.2542424E-1,1.5674703E-1,-3.154411E-1,1.5638417E-1,-1.5584943E-1,1.5517357E-1],"categories":[],"categories_nodes":[],"categories_segments":[],"categories_sizes":[],"default_left":[0,0,0,0,0,0,0],"id":26,"left_children":[1,3,-1,5,-1,-1,-1],"loss_changes":[2.7069662E1,3.5158203E1,0E0,3.777274E1,0E0,0E0,0E0],"parents":[2147483647,0,0,1,1,3,3],"right_children":[2,4,-1,6,-1,-1,-1],"split_conditions":[1E0,1E0,1.5674703E-1,1E0,1.5638417E-1,-1.5584943E-1,1.5517357E-1],"split_indices":[5,3,0,4,0,0,0],"split_type":[0,0,0,0,0,0,0],"sum_hessian":[3.6613004E2,2.837689E2,8.236115E1,2.1972176E2,6.404712E1,1.7677713E2,4.2944633E1],"tree_param":{"num_deleted":"0","num_feature":"8","num_nodes":"7","size_leaf_vector":"1"}},{"base_weights":[-1.3290737E-2,1.3389531E-1,-1.5101019E-1,2.2557671E-1,-1.4731121E-1,3.2054913E-1,-1.4586332E-1,4.0500867E-1,-1.4347629E-1,4.8348477E-1,-1.4040056E-1,-1.1503097E-1,1.5194082E-1],"categories":[],"categories_nodes":[],"categories_segments":[],"categories_sizes":[],"default_left":[0,0,0,0,0,0,0,0,0,0,0,0,0],"id":27,"left_children":[1,3,-1,5,-1,7,-1,9,-1,11,-1,-1,-1],"loss_changes":[1.8004814E1,1.1112964E1,0E0,1.1522552E1,0E0,1.0243134E1,0E0,9.492477E0,0E0,2.6767406E0,0E0,0E0,0E0],"parents":[2147483647,0,0,1,1,3,3,5,5,7,7,9,9],"right_children":[2,4,-1,6,-1,8,-1,10,-1,12,-1,-1,-1],"split_conditions":[1E0,1E0,-1.5101019E-1,1E0,-1.4731121E-1,1E0,-1.4586332E-1,1E0,-1.4347629E-1,5.990535E-1,-1.4040056E-1,-1.1503097E-1,1.5194082E-1],"split_indices":[2,3,0,5,0,6,0,4,0,7,0,0,0],"split_type":[0,0,0,0,0,0,0,0,0,0,0,0,0],"sum_hessian":[2.4767339E2,1.9102815E2,5.6645233E1,1.6714589E2,2.388227E1,1.479543E2,1.9191591E1,1.3425243E2,1.3701874E1,1.2358903E2,1.0663397E1,2.7870278E0,1.20801994E2],"tree_param":{"num_deleted":"0","num_feature":"8","num_nodes":"13","size_leaf_vector":"1"}},{"base_weights":[-1.4696531E-2,-2.3704934E-1,2.8856814E-1,-4.1919857E-1,2.60409E-1,3.7955844E-1,-1.3782397E-1,2.1659465E-1,-4.806782E-1,3.5453132E-1,-1.2013571E-1,4.6006852E-1,-1.3303015E-1,1.1011521E-1,8.766808E-2,1.1145126E-1,-1.5086651E-1,4.378648E-1,-1.1096564E-1,1.568769E-1,-1.2522888E-1,6.658566E-2,6.945158E-3,1.5313438E-1,-1.0117447E-1,-8.31873E-3,1.1447919E-2],"categories":[],"categories_nodes":[],"categories_segments":[],"categories_sizes":[],"default_left":[0,0,0,0,0,0,0,0,0,0,0,0,0,0,0,0,0,0,0,0,0,0,0,0,0,0,0],"id":28,"left_children":[1,3,5,7,9,11,-1,13,15,17,-1,19,-1,21,-1,-1,-1,23,-1,-1,-1,-1,25,-1,-1,-1,-1],"loss_changes":[1.4420716E1,1.1286301E1,6.333032E0,3.6484232E0,2.2367933E0,5.585808E0,0E0,3.775817E-2,1.7575798E0,1.9735892E0,0E0,4.3260098E0,0E0,5.8587596E-2,0E0,0E0,0E0,1.7120748E0,0E0,0E0,0E0,0E0,5.109322E-3,0E0,0E0,0E0,0E0],"parents":[2147483647,0,0,1,1,2,2,3,3,4,4,5,5,7,7,8,8,9,9,11,11,13,13,17,17,22,22],"right_children":[2,4,6,8,10,12,-1,14,16,18,-1,20,-1,22,-1,-1,-1,24,-1,-1,-1,-1,26,-1,-1,-1,-1],"split_conditions":[1E0,1E0,1E0,5.990535E-1,1E0,1E0,-1.3782397E-1,8.329244E1,5.9607735E1,1E0,-1.2013571E-1,1E0,-1.3303015E-1,7.342822E1,8.766808E-2,1.1145126E-1,-1.5086651E-1,1E0,-1.1096564E-1,1.568769E-1,-1.2522888E-1,6.658566E-2,7.9343575E1,1.5313438E-1,-1.0117447E-1,-8.31873E-3,1.1447919E-2],"split_indices":[2,6,5,7,5,3,0,0,0,4,0,4,0,0,0,0,0,3,0,0,0,0,0,0,0,0,0],"split_type":[0,0,0,0,0,0,0,0,0,0,0,0,0,0,0,0,0,0,0,0,0,0,0,0,0,0,0],"sum_hessian":[2.1184203E2,1.2235212E2,8.94899E1,8.967432E1,3.2677807E1,8.022344E1,9.266454E0,7.6842647E0,8.199005E1,2.9009672E1,3.6681337E0,7.347651E1,6.7469344E0,4.2112937E0,3.472971E0,1.6831257E0,8.030692E1,2.6371574E1,2.6380994E0,6.894231E1,4.5342045E0,1.4683111E0,2.7429824E0,2.4425753E1,1.9458215E0,1.3523763E0,1.3906062E0],"tree_param":{"num_deleted":"0","num_feature":"8","num_nodes":"27","size_leaf_vector":"1"}},{"base_weights":[2.307786E-2,-1.21519625E-1,1.5401249E-1,-3.0958995E-1,1.5352762E-1,-1.5381664E-1,1.5193816E-1],"categories":[],"categories_nodes":[],"categories_segments":[],"categories_sizes":[],"default_left":[0,0,0,0,0,0,0],"id":29,"left_children":[1,3,-1,5,-1,-1,-1],"loss_changes":[1.9824574E1,2.5892944E1,0E0,2.7979149E1,0E0,0E0,0E0],"parents":[2147483647,0,0,1,1,3,3],"right_children":[2,4,-1,6,-1,-1,-1],"split_conditions":[1E0,1E0,1.5401249E-1,1E0,1.5352762E-1,-1.5381664E-1,1.5193816E-1],"split_indices":[5,3,0,4,0,0,0],"split_type":[0,0,0,0,0,0,0],"sum_hessian":[2.7775006E2,2.1507323E2,6.267684E1,1.662204E2,4.885283E1,1.3338881E2,3.2831593E1],"tree_param":{"num_deleted":"0","num_feature":"8","num_nodes":"7","size_leaf_vector":"1"}},{"base_weights":[-1.6450493E-2,1.2707758E-1,-1.4921552E-1,2.1634527E-1,-1.445339E-1,3.0862883E-1,-1.4271261E-1,3.912226E-1,-1.395467E-1,4.678692E-1,-1.358795E-1,-1.830629E-1,1.4648029E-1],"categories":[],"categories_nodes":[],"categories_segments":[],"categories_sizes":[],"default_left":[0,0,0,0,0,0,0,0,0,0,0,0,0],"id":30,"left_children":[1,3,-1,5,-1,7,-1,9,-1,11,-1,-1,-1],"loss_changes":[1.30706005E1,8.035336E0,0E0,8.318646E0,0E0,7.436124E0,0E0,6.8827734E0,0E0,2.3873615E0,0E0,0E0,0E0],"parents":[2147483647,0,0,1,1,3,3,5,5,7,7,9,9],"right_children":[2,4,-1,6,-1,8,-1,10,-1,12,-1,-1,-1],"split_conditions":[1E0,1E0,-1.4921552E-1,1E0,-1.445339E-1,1E0,-1.4271261E-1,1E0,-1.395467E-1,6.214465E1,-1.358795E-1,-1.830629E-1,1.4648029E-1],"split_indices":[2,5,0,3,0,6,0,4,0,0,0,0,0],"split_type":[0,0,0,0,0,0,0,0,0,0,0,0,0],"sum_hessian":[1.8743755E2,1.449231E2,4.251446E1,1.2695433E2,1.7968756E1,1.12506E2,1.44483385E1,1.0210203E2,1.0403968E1,9.40118E1,8.090228E0,1.2088385E0,9.280296E1],"tree_param":{"num_deleted":"0","num_feature":"8","num_nodes":"13","size_leaf_vector":"1"}},{"base_weights":[-1.3692515E-2,-2.2776553E-1,2.807197E-1,-4.0296558E-1,2.4893941E-1,3.702107E-1,-1.330801E-1,1.9651003E-1,-4.6922615E-1,3.4116307E-1,-1.1247099E-1,4.497927E-1,-1.2731244E-1,1.008428E-1,7.812577E-2,1.1635777E-1,-1.495614E-1,4.2376792E-1,-1.0252736E-1,1.537694E-1,-1.18264616E-1,5.883883E-2,8.665563E-3,1.4895143E-1,-9.2238374E-2,-6.5849586E-3,1.0489602E-2],"categories":[],"categories_nodes":[],"categories_segments":[],"categories_sizes":[],"default_left":[0,0,0,0,0,0,0,0,0,0,0,0,0,0,0,0,0,0,0,0,0,0,0,0,0,0,0],"id":31,"left_children":[1,3,5,7,9,11,-1,13,15,17,-1,19,-1,21,-1,-1,-1,23,-1,-1,-1,-1,25,-1,-1,-1,-1],"loss_changes":[1.0301196E1,8.00108E0,4.6258693E0,2.8551264E0,1.6261579E0,4.0992413E0,0E0,2.0375222E-2,1.7743196E0,1.4542317E0,0E0,3.2042198E0,0E0,3.9466046E-2,0E0,0E0,0E0,1.2777281E0,0E0,0E0,0E0,0E0,3.5280464E-3,0E0,0E0,0E0,0E0],"parents":[2147483647,0,0,1,1,2,2,3,3,4,4,5,5,7,7,8,8,9,9,11,11,13,13,17,17,22,22],"right_children":[2,4,6,8,10,12,-1,14,16,18,-1,20,-1,22,-1,-1,-1,24,-1,-1,-1,-1,26,-1,-1,-1,-1],"split_conditions":[1E0,1E0,1E0,5.990535E-1,1E0,1E0,-1.330801E-1,8.329244E1,5.9607735E1,1E0,-1.1247099E-1,1E0,-1.2731244E-1,7.342822E1,7.812577E-2,1.1635777E-1,-1.495614E-1,1E0,-1.0252736E-1,1.537694E-1,-1.18264616E-1,5.883883E-2,7.9343575E1,1.4895143E-1,-9.2238374E-2,-6.5849586E-3,1.0489602E-2],"split_indices":[2,6,5,7,5,3,0,0,0,4,0,4,0,0,0,0,0,3,0,0,0,0,0,0,0,0,0],"split_type":[0,0,0,0,0,0,0,0,0,0,0,0,0,0,0,0,0,0,0,0,0,0,0,0,0,0,0],"sum_hessian":[1.6142987E2,9.359873E1,6.783114E1,6.85571E1,2.5041632E1,6.080719E1,7.023952E0,6.6278234E0,6.1929276E1,2.2211235E1,2.830396E0,5.566588E1,5.1413093E0,3.686828E0,2.9409955E0,1.6434102E0,6.0285866E1,2.0153038E1,2.058197E0,5.217792E1,3.4879582E0,1.2583195E0,2.4285083E0,1.86217E1,1.5313373E0,1.1986102E0,1.2298982E0],"tree_param":{"num_deleted":"0","num_feature":"8","num_nodes":"27","size_leaf_vector":"1"}},{"base_weights":[2.5167206E-2,-1.1747702E-1,1.5168777E-1,-3.0400613E-1,1.5107735E-1,-1.5217784E-1,1.4905883E-1],"categories":[],"categories_nodes":[],"categories_segments":[],"categories_sizes":[],"default_left":[0,0,0,0,0,0,0],"id":32,"left_children":[1,3,-1,5,-1,-1,-1],"loss_changes":[1.4557507E1,1.9143679E1,0E0,2.087442E1,0E0,0E0,0E0],"parents":[2147483647,0,0,1,1,3,3],"right_children":[2,4,-1,6,-1,-1,-1],"split_conditions":[1E0,1E0,1.5168777E-1,1E0,1.5107735E-1,-1.5217784E-1,1.4905883E-1],"split_indices":[5,3,0,4,0,0,0],"split_type":[0,0,0,0,0,0,0],"sum_hessian":[2.1054414E2,1.6292773E2,4.761641E1,1.2568925E2,3.7238487E1,1.0053977E2,2.5149473E1],"tree_param":{"num_deleted":"0","num_feature":"8","num_nodes":"7","size_leaf_vector":"1"}},{"base_weights":[-2.071614E-2,1.17862225E-1,-1.4740409E-1,2.038854E-1,-1.4148937E-1,2.922434E-1,-1.3913207E-1,3.7187544E-1,-1.3516204E-1,4.4562107E-1,-1.3077953E-1,-1.1257238E-1,1.4432228E-1],"categories":[],"categories_nodes":[],"categories_segments":[],"categories_sizes":[],"default_left":[0,0,0,0,0,0,0,0,0,0,0,0,0],"id":33,"left_children":[1,3,-1,5,-1,7,-1,9,-1,11,-1,-1,-1],"loss_changes":[9.433379E0,5.7685776E0,0E0,5.935327E0,0E0,5.339359E0,0E0,4.9313335E0,0E0,2.3154716E0,0E0,0E0,0E0],"parents":[2147483647,0,0,1,1,3,3,5,5,7,7,9,9],"right_children":[2,4,-1,6,-1,8,-1,10,-1,12,-1,-1,-1],"split_conditions":[1E0,1E0,-1.4740409E-1,1E0,-1.4148937E-1,1E0,-1.3913207E-1,1E0,-1.3516204E-1,5.990535E-1,-1.3077953E-1,-1.1257238E-1,1.4432228E-1],"split_indices":[2,3,0,5,0,6,0,4,0,7,0,0,0],"split_type":[0,0,0,0,0,0,0,0,0,0,0,0,0],"sum_hessian":[1.4275308E2,1.1085974E2,3.1893347E1,9.731322E1,1.3546521E1,8.64365E1,1.0876719E1,7.851811E1,7.9183893E0,7.236059E1,6.157524E0,2.5990682E0,6.976152E1],"tree_param":{"num_deleted":"0","num_feature":"8","num_nodes":"13","size_leaf_vector":"1"}},{"base_weights":[-1.1406066E-2,-2.1357214E-1,2.728253E-1,-3.7726492E-1,2.3696247E-1,3.612495E-1,-1.2763487E-1,2.0568758E-1,-4.5700464E-1,3.275775E-1,-1.0425812E-1,4.4043657E-1,-1.2086097E-1,6.744358E-2,1.5888745E-2,1.0220505E-1,-1.4825827E-1,4.0985155E-1,-9.382708E-2,1.51113E-1,-1.106691E-1,1.4494847E-1,-8.332439E-2],"categories":[],"categories_nodes":[],"categories_segments":[],"categories_sizes":[],"default_left":[0,0,0,0,0,0,0,0,0,0,0,0,0,0,0,0,0,0,0,0,0,0,0],"id":34,"left_children":[1,3,5,7,9,11,-1,13,15,17,-1,19,-1,-1,-1,-1,-1,21,-1,-1,-1,-1,-1],"loss_changes":[7.2323613E0,5.5112944E0,3.384869E0,2.6186237E0,1.1840708E0,3.0207434E0,0E0,9.195089E-3,1.5948772E0,1.0769726E0,0E0,2.390665E0,0E0,0E0,0E0,0E0,0E0,9.604702E-1,0E0,0E0,0E0,0E0,0E0],"parents":[2147483647,0,0,1,1,2,2,3,3,4,4,5,5,7,7,8,8,9,9,11,11,17,17],"right_children":[2,4,6,8,10,12,-1,14,16,18,-1,20,-1,-1,-1,-1,-1,22,-1,-1,-1,-1,-1],"split_conditions":[1E0,1E0,1E0,5.990535E-1,1E0,1E0,-1.2763487E-1,9E0,5.9607735E1,1E0,-1.0425812E-1,1E0,-1.2086097E-1,6.744358E-2,1.5888745E-2,1.0220505E-1,-1.4825827E-1,1E0,-9.382708E-2,1.51113E-1,-1.106691E-1,1.4494847E-1,-8.332439E-2],"split_indices":[2,6,5,7,5,3,0,1,0,4,0,4,0,0,0,0,0,3,0,0,0,0,0],"split_type":[0,0,0,0,0,0,0,0,0,0,0,0,0,0,0,0,0,0,0,0,0,0,0],"sum_hessian":[1.23849464E2,7.251798E1,5.1331482E1,5.3311092E1,1.9206892E1,4.599028E1,5.3412037E0,6.224707E0,4.7086384E1,1.7009422E1,2.1974685E0,4.2055588E1,3.9346929E0,5.1125116E0,1.1121954E0,1.7339402E0,4.5352444E1,1.539174E1,1.617683E0,3.9356342E1,2.6992426E0,1.4177496E1,1.2142441E0],"tree_param":{"num_deleted":"0","num_feature":"8","num_nodes":"23","size_leaf_vector":"1"}},{"base_weights":[2.7368983E-2,-1.1339101E-1,1.4957866E-1,-2.987332E-1,1.4882264E-1,-1.5077463E-1,1.4627264E-1],"categories":[],"categories_nodes":[],"categories_segments":[],"categories_sizes":[],"default_left":[0,0,0,0,0,0,0],"id":35,"left_children":[1,3,-1,5,-1,-1,-1],"loss_changes":[1.0724967E1,1.4229768E1,0E0,1.5667096E1,0E0,0E0,0E0],"parents":[2147483647,0,0,1,1,3,3],"right_children":[2,4,-1,6,-1,-1,-1],"split_conditions":[1E0,1E0,1.4957866E-1,1E0,1.4882264E-1,-1.5077463E-1,1.4627264E-1],"split_indices":[5,3,0,4,0,0,0],"split_type":[0,0,0,0,0,0,0],"sum_hessian":[1.5983907E2,1.2365998E2,3.6179077E1,9.521455E1,2.8445435E1,7.589878E1,1.9315765E1],"tree_param":{"num_deleted":"0","num_feature":"8","num_nodes":"7","size_leaf_vector":"1"}},{"base_weights":[-2.5797399E-2,1.086257E-1,-1.454352E-1,1.9209822E-1,-1.3795446E-1,2.7773812E-1,-1.3502173E-1,3.5564312E-1,-1.3018142E-1,4.2784026E-1,-1.2499115E-1,-1.795266E-1,1.3821217E-1],"categories":[],"categories_nodes":[],"categories_segments":[],"categories_sizes":[],"default_left":[0,0,0,0,0,0,0,0,0,0,0,0,0],"id":36,"left_children":[1,3,-1,5,-1,7,-1,9,-1,11,-1,-1,-1],"loss_changes":[6.79544E0,4.1382113E0,0E0,4.2565203E0,0E0,3.8636608E0,0E0,3.571136E0,0E0,2.1694012E0,0E0,0E0,0E0],"parents":[2147483647,0,0,1,1,3,3,5,5,7,7,9,9],"right_children":[2,4,-1,6,-1,8,-1,10,-1,12,-1,-1,-1],"split_conditions":[1E0,1E0,-1.454352E-1,1E0,-1.3795446E-1,1E0,-1.3502173E-1,1E0,-1.3018142E-1,6.214465E1,-1.2499115E-1,-1.795266E-1,1.3821217E-1],"split_indices":[2,3,0,5,0,6,0,4,0,0,0,0,0],"split_type":[0,0,0,0,0,0,0,0,0,0,0,0,0],"sum_hessian":[1.0828614E2,8.434686E1,2.3939276E1,7.4124756E1,1.0222113E1,6.590338E1,8.221375E0,5.9851852E1,6.051525E0,5.5142796E1,4.7090573E0,1.1772139E0,5.396558E1],"tree_param":{"num_deleted":"0","num_feature":"8","num_nodes":"13","size_leaf_vector":"1"}},{"base_weights":[-1.012166E-2,-2.0196868E-1,2.643718E-1,-3.5651916E-1,2.2415426E-1,3.520238E-1,-1.21412106E-1,1.8312712E-1,-4.4073582E-1,3.1325027E-1,-9.566797E-2,4.3122673E-1,-1.13678515E-1,9.829537E-2,6.9111854E-2,1.0769621E-1,-1.4683631E-1,1.18613824E-1,-8.5089795E-2,1.4865123E-1,-1.0256433E-1,5.090554E-2,1.849397E-2,-3.3501592E-3,1.15914885E-2],"categories":[],"categories_nodes":[],"categories_segments":[],"categories_sizes":[],"default_left":[0,0,0,0,0,0,0,0,0,0,0,0,0,0,0,0,0,0,0,0,0,0,0,0,0],"id":37,"left_children":[1,3,5,7,9,11,-1,13,15,17,-1,19,-1,21,-1,-1,-1,-1,-1,-1,-1,-1,23,-1,-1],"loss_changes":[5.09882E0,3.8312762E0,2.4794068E0,1.997992E0,8.6312985E-1,2.234105E0,0E0,3.0117333E-3,1.6089249E0,8.0118287E-1,0E0,1.7962828E0,0E0,1.9843996E-2,0E0,0E0,0E0,0E0,0E0,0E0,0E0,0E0,2.2402108E-3,0E0,0E0],"parents":[2147483647,0,0,1,1,2,2,3,3,4,4,5,5,7,7,8,8,9,9,11,11,13,13,22,22],"right_children":[2,4,6,8,10,12,-1,14,16,18,-1,20,-1,22,-1,-1,-1,-1,-1,-1,-1,-1,24,-1,-1],"split_conditions":[1E0,1E0,1E0,5.990535E-1,1E0,1E0,-1.21412106E-1,8.329244E1,5.9607735E1,1E0,-9.566797E-2,1E0,-1.13678515E-1,7.342822E1,6.9111854E-2,1.0769621E-1,-1.4683631E-1,1.18613824E-1,-8.5089795E-2,1.4865123E-1,-1.0256433E-1,5.090554E-2,7.9343575E1,-3.3501592E-3,1.15914885E-2],"split_indices":[2,6,5,7,5,3,0,0,0,4,0,4,0,0,0,0,0,0,0,0,0,0,0,0,0],"split_type":[0,0,0,0,0,0,0,0,0,0,0,0,0,0,0,0,0,0,0,0,0,0,0,0,0],"sum_hessian":[9.480997E1,5.5961773E1,3.884819E1,4.1187004E1,1.4774769E1,3.476739E1,4.080798E0,5.40138E0,3.5785625E1,1.3055894E1,1.718875E0,3.17384E1,3.0289927E0,3.0340767E0,2.3673036E0,1.6891612E0,3.4096466E1,1.1773493E1,1.2824004E0,2.9633686E1,2.104714E0,1.0069361E0,2.0271406E0,1.0001409E0,1.0269997E0],"tree_param":{"num_deleted":"0","num_feature":"8","num_nodes":"25","size_leaf_vector":"1"}},{"base_weights":[3.0929845E-2,-1.08235255E-1,1.4754213E-1,-2.927324E-1,1.4656918E-1,-1.4945868E-1,1.433961E-1],"categories":[],"categories_nodes":[],"categories_segments":[],"categories_sizes":[],"default_left":[0,0,0,0,0,0,0],"id":38,"left_children":[1,3,-1,5,-1,-1,-1],"loss_changes":[7.9105115E0,1.0593698E1,0E0,1.1817879E1,0E0,0E0,0E0],"parents":[2147483647,0,0,1,1,3,3],"right_children":[2,4,-1,6,-1,-1,-1],"split_conditions":[1E0,1E0,1.4754213E-1,1E0,1.4656918E-1,-1.4945868E-1,1.433961E-1],"split_indices":[5,3,0,4,0,0,0],"split_type":[0,0,0,0,0,0,0],"sum_hessian":[1.2150579E2,9.39132E1,2.7592592E1,7.21255E1,2.17877E1,5.7223976E1,1.49015255E1],"tree_param":{"num_deleted":"0","num_feature":"8","num_nodes":"7","size_leaf_vector":"1"}},{"base_weights":[-3.2899052E-2,9.495767E-2,-1.431747E-1,1.7419866E-1,-1.3381971E-1,2.5492498E-1,-1.301937E-1,3.3052233E-1,-1.24938846E-1,3.9934474E-1,-1.1848418E-1,-1.1004846E-1,1.3585353E-1],"categories":[],"categories_nodes":[],"categories_segments":[],"categories_sizes":[],"default_left":[0,0,0,0,0,0,0,0,0,0,0,0,0],"id":39,"left_children":[1,3,-1,5,-1,7,-1,9,-1,11,-1,-1,-1],"loss_changes":[4.833508E0,2.9192872E0,0E0,2.984377E0,0E0,2.7923589E0,0E0,2.5327415E0,0E0,1.9674025E0,0E0,0E0,0E0],"parents":[2147483647,0,0,1,1,3,3,5,5,7,7,9,9],"right_children":[2,4,-1,6,-1,8,-1,10,-1,12,-1,-1,-1],"split_conditions":[1E0,1E0,-1.431747E-1,1E0,-1.3381971E-1,1E0,-1.301937E-1,1E0,-1.24938846E-1,5.990535E-1,-1.1848418E-1,-1.1004846E-1,1.3585353E-1],"split_indices":[2,5,0,3,0,6,0,4,0,7,0,0,0],"split_type":[0,0,0,0,0,0,0,0,0,0,0,0,0],"sum_hessian":[8.327965E1,6.528183E1,1.7997818E1,5.753324E1,7.7485857E0,5.1304226E1,6.2290177E0,4.656839E1,4.735835E0,4.2944E1,3.6243901E0,2.4207082E0,4.0523293E1],"tree_param":{"num_deleted":"0","num_feature":"8","num_nodes":"13","size_leaf_vector":"1"}},{"base_weights":[-6.577764E-3,-1.8167962E-1,2.5494647E-1,-3.229922E-1,2.0547521E-1,3.4200644E-1,-1.1441912E-1,5.9129704E-2,-4.2386818E-1,2.940049E-1,-8.8682875E-2,4.215343E-1,-1.0586526E-1,9.385509E-2,-1.4522499E-1,1.1342273E-1,-7.849871E-2,1.4617386E-1,-9.415294E-2],"categories":[],"categories_nodes":[],"categories_segments":[],"categories_sizes":[],"default_left":[0,0,0,0,0,0,0,0,0,0,0,0,0,0,0,0,0,0,0],"id":40,"left_children":[1,3,5,7,9,11,-1,-1,13,15,-1,17,-1,-1,-1,-1,-1,-1,-1],"loss_changes":[3.4756122E0,2.5522845E0,1.817262E0,1.8503878E0,6.530175E-1,1.6580393E0,0E0,0E0,1.416791E0,6.2899214E-1,0E0,1.3591542E0,0E0,0E0,0E0,0E0,0E0,0E0,0E0],"parents":[2147483647,0,0,1,1,2,2,3,3,4,4,5,5,8,8,9,9,11,11],"right_children":[2,4,6,8,10,12,-1,-1,14,16,-1,18,-1,-1,-1,-1,-1,-1,-1],"split_conditions":[1E0,1E0,1E0,5.990535E-1,1E0,1E0,-1.1441912E-1,5.9129704E-2,5.9607735E1,1E0,-8.8682875E-2,1E0,-1.0586526E-1,9.385509E-2,-1.4522499E-1,1.1342273E-1,-7.849871E-2,1.4617386E-1,-9.415294E-2],"split_indices":[2,6,5,7,3,3,0,0,0,5,0,4,0,0,0,0,0,0,0],"split_type":[0,0,0,0,0,0,0,0,0,0,0,0,0,0,0,0,0,0,0],"sum_hessian":[7.388623E1,4.4438217E1,2.9448017E1,3.267682E1,1.1761399E1,2.6310892E1,3.137124E0,5.153384E0,2.7523434E1,1.0346656E1,1.4147434E0,2.3961914E1,2.348979E0,1.7626204E0,2.5760813E1,9.264555E0,1.0821003E0,2.2306105E1,1.6558099E0],"tree_param":{"num_deleted":"0","num_feature":"8","num_nodes":"19","size_leaf_vector":"1"}},{"base_weights":[3.471715E-2,-1.02121636E-1,1.4538863E-1,-2.869198E-1,1.4428487E-1,-1.4816183E-1,1.4030036E-1],"categories":[],"categories_nodes":[],"categories_segments":[],"categories_sizes":[],"default_left":[0,0,0,0,0,0,0],"id":41,"left_children":[1,3,-1,5,-1,-1,-1],"loss_changes":[5.8398733E0,7.9977565E0,0E0,8.978577E0,0E0,0E0,0E0],"parents":[2147483647,0,0,1,1,3,3],"right_children":[2,4,-1,6,-1,-1,-1],"split_conditions":[1E0,1E0,1.4538863E-1,1E0,1.4428487E-1,-1.4816183E-1,1.4030036E-1],"split_indices":[5,3,0,4,0,0,0],"split_type":[0,0,0,0,0,0,0],"sum_hessian":[9.30526E1,7.194411E1,2.1108488E1,5.5015465E1,1.6928644E1,4.3445595E1,1.1569869E1],"tree_param":{"num_deleted":"0","num_feature":"8","num_nodes":"7","size_leaf_vector":"1"}},{"base_weights":[-4.105605E-2,8.1195265E-2,-1.404932E-1,1.5724626E-1,-1.289871E-1,2.3433048E-1,-1.2455867E-1,3.0910113E-1,-1.191472E-1,3.7615943E-1,-1.11317955E-1,-1.7157426E-1,1.2816411E-1],"categories":[],"categories_nodes":[],"categories_segments":[],"categories_sizes":[],"default_left":[0,0,0,0,0,0,0,0,0,0,0,0,0],"id":42,"left_children":[1,3,-1,5,-1,7,-1,9,-1,11,-1,-1,-1],"loss_changes":[3.4234319E0,2.0597644E0,0E0,2.098063E0,0E0,2.0397677E0,0E0,1.8209691E0,0E0,1.8925762E0,0E0,0E0,0E0],"parents":[2147483647,0,0,1,1,3,3,5,5,7,7,9,9],"right_children":[2,4,-1,6,-1,8,-1,10,-1,12,-1,-1,-1],"split_conditions":[1E0,1E0,-1.404932E-1,1E0,-1.289871E-1,1E0,-1.2455867E-1,1E0,-1.191472E-1,6.214465E1,-1.11317955E-1,-1.7157426E-1,1.2816411E-1],"split_indices":[2,3,0,5,0,6,0,4,0,0,0,0,0],"split_type":[0,0,0,0,0,0,0,0,0,0,0,0,0],"sum_hessian":[6.3814266E1,5.0246952E1,1.3567312E1,4.4341972E1,5.904982E0,3.960012E1,4.7418494E0,3.586418E1,3.7359416E0,3.3052437E1,2.8117442E0,1.1676261E0,3.188481E1],"tree_param":{"num_deleted":"0","num_feature":"8","num_nodes":"13","size_leaf_vector":"1"}},{"base_weights":[-4.513517E-3,-1.655121E-1,2.4422719E-1,-2.9696277E-1,1.8677244E-1,3.3077803E-1,-1.06757514E-1,5.2382704E-2,-4.0010026E-1,8.1503555E-2,-8.0531806E-2,4.108312E-1,-9.760458E-2,9.952661E-2,-1.4329535E-1,1.4349826E-1,-8.5682124E-2],"categories":[],"categories_nodes":[],"categories_segments":[],"categories_sizes":[],"default_left":[0,0,0,0,0,0,0,0,0,0,0,0,0,0,0,0,0],"id":43,"left_children":[1,3,5,7,9,11,-1,-1,13,-1,-1,15,-1,-1,-1,-1,-1],"loss_changes":[2.3831658E0,1.7276332E0,1.3325536E0,1.3676503E0,4.759113E-1,1.2345994E0,0E0,0E0,1.418365E0,0E0,0E0,1.0355237E0,0E0,0E0,0E0,0E0,0E0],"parents":[2147483647,0,0,1,1,2,2,3,3,4,4,5,5,8,8,11,11],"right_children":[2,4,6,8,10,12,-1,-1,14,-1,-1,16,-1,-1,-1,-1,-1],"split_conditions":[1E0,1E0,1E0,5.990535E-1,1E0,1E0,-1.06757514E-1,5.2382704E-2,5.9607735E1,8.1503555E-2,-8.0531806E-2,1E0,-9.760458E-2,9.952661E-2,-1.4329535E-1,1.4349826E-1,-8.5682124E-2],"split_indices":[2,6,5,7,4,3,0,0,0,0,0,4,0,0,0,0,0],"split_type":[0,0,0,0,0,0,0,0,0,0,0,0,0,0,0,0,0],"sum_hessian":[5.7499996E1,3.5109688E1,2.2390308E1,2.568331E1,9.426376E0,1.9960213E1,2.4300961E0,4.4847736E0,2.1198536E1,8.28436E0,1.1420163E0,1.8122911E1,1.8373004E0,1.7170122E0,1.9481524E1,1.68072E1,1.3157123E0],"tree_param":{"num_deleted":"0","num_feature":"8","num_nodes":"17","size_leaf_vector":"1"}},{"base_weights":[4.031155E-2,-9.4113216E-2,1.4304796E-1,-2.7715087E-1,1.416714E-1,-1.4674754E-1,1.3711712E-1],"categories":[],"categories_nodes":[],"categories_segments":[],"categories_sizes":[],"default_left":[0,0,0,0,0,0,0],"id":44,"left_children":[1,3,-1,5,-1,-1,-1],"loss_changes":[4.302754E0,5.9685435E0,0E0,6.946296E0,0E0,0E0,0E0],"parents":[2147483647,0,0,1,1,3,3],"right_children":[2,4,-1,6,-1,-1,-1],"split_conditions":[1E0,1E0,1.4304796E-1,1E0,1.416714E-1,-1.4674754E-1,1.3711712E-1],"split_indices":[5,3,0,4,0,0,0],"split_type":[0,0,0,0,0,0,0],"sum_hessian":[7.156292E1,5.5313522E1,1.6249397E1,4.218915E1,1.312437E1,3.2995293E1,9.193859E0],"tree_param":{"num_deleted":"0","num_feature":"8","num_nodes":"7","size_leaf_vector":"1"}},{"base_weights":[-5.139254E-2,6.2382344E-2,-1.3727002E-1,1.3295048E-1,-1.23343915E-1,2.0546488E-1,-1.1873628E-1,2.7702695E-1,-1.1279205E-1,-1.0770812E-1,3.4356034E-1,-1.4902698E-1,1.2088489E-1],"categories":[],"categories_nodes":[],"categories_segments":[],"categories_sizes":[],"default_left":[0,0,0,0,0,0,0,0,0,0,0,0,0],"id":45,"left_children":[1,3,-1,5,-1,7,-1,9,-1,-1,11,-1,-1],"loss_changes":[2.382645E0,1.4138278E0,0E0,1.4675194E0,0E0,1.4544572E0,0E0,1.3705487E0,0E0,0E0,1.5571911E0,0E0,0E0],"parents":[2147483647,0,0,1,1,3,3,5,5,7,7,10,10],"right_children":[2,4,-1,6,-1,8,-1,10,-1,-1,12,-1,-1],"split_conditions":[1E0,1E0,-1.3727002E-1,1E0,-1.23343915E-1,1E0,-1.1873628E-1,5.990535E-1,-1.1279205E-1,-1.0770812E-1,6.214465E1,-1.4902698E-1,1.2088489E-1],"split_indices":[2,3,0,6,0,5,0,7,0,0,0,0,0],"split_type":[0,0,0,0,0,0,0,0,0,0,0,0,0],"sum_hessian":[4.9940872E1,3.967405E1,1.0266824E1,3.5154366E1,4.519684E0,3.1452219E1,3.7021456E0,2.8471556E1,2.9806643E0,2.2798796E0,2.6191675E1,1.242781E0,2.4948895E1],"tree_param":{"num_deleted":"0","num_feature":"8","num_nodes":"13","size_leaf_vector":"1"}},{"base_weights":[-7.7773265E-8,7.9897836E-2,-1.317709E-1,1.6318053E-1,-1.2630624E-1,2.3875377E-1,-1.18562475E-1,6.2517546E-2,1.4046134E-1,-1.09925054E-1,1.2802742E-1,1.18905514E-1,-8.8097274E-2],"categories":[],"categories_nodes":[],"categories_segments":[],"categories_sizes":[],"default_left":[0,0,0,0,0,0,0,0,0,0,0,0,0],"id":46,"left_children":[1,3,-1,5,-1,7,-1,9,-1,11,-1,-1,-1],"loss_changes":[1.6815124E0,1.7599487E0,0E0,1.5916487E0,0E0,1.259683E0,0E0,1.2517599E0,0E0,1.4013581E0,0E0,0E0,0E0],"parents":[2147483647,0,0,1,1,3,3,5,5,7,7,9,9],"right_children":[2,4,-1,6,-1,8,-1,10,-1,12,-1,-1,-1],"split_conditions":[1E0,1E0,-1.317709E-1,1E0,-1.2630624E-1,1E0,-1.18562475E-1,1E0,1.4046134E-1,5.990535E-1,1.2802742E-1,1.18905514E-1,-8.8097274E-2],"split_indices":[3,5,0,4,0,2,0,6,0,7,0,0,0],"split_type":[0,0,0,0,0,0,0,0,0,0,0,0,0],"sum_hessian":[4.591444E1,3.9540115E1,6.374325E0,3.4481464E1,5.0586486E0,3.087519E1,3.606275E0,1.8182253E1,1.2692938E1,1.2813947E1,5.3683066E0,3.1038995E0,9.710047E0],"tree_param":{"num_deleted":"0","num_feature":"8","num_nodes":"13","size_leaf_vector":"1"}},{"base_weights":[4.6199042E-2,-8.681498E-2,1.4052561E-1,-2.6997834E-1,1.388646E-1,-1.4519109E-1,1.3336255E-1],"categories":[],"categories_nodes":[],"categories_segments":[],"categories_sizes":[],"default_left":[0,0,0,0,0,0,0],"id":47,"left_children":[1,3,-1,5,-1,-1,-1],"loss_changes":[3.2232172E0,4.548656E0,0E0,5.350628E0,0E0,0E0,0E0],"parents":[2147483647,0,0,1,1,3,3],"right_children":[2,4,-1,6,-1,-1,-1],"split_conditions":[1E0,1E0,1.4052561E-1,1E0,1.388646E-1,-1.4519109E-1,1.3336255E-1],"split_indices":[5,3,0,4,0,0,0],"split_type":[0,0,0,0,0,0,0],"sum_hessian":[5.5668224E1,4.29362E1,1.2732026E1,3.258686E1,1.0349339E1,2.5324945E1,7.2619143E0],"tree_param":{"num_deleted":"0","num_feature":"8","num_nodes":"7","size_leaf_vector":"1"}},{"base_weights":[-5.704051E-2,4.863355E-2,-1.3340336E-1,1.14394255E-1,-1.1710079E-1,-1.8511485E-1,1.6217437E-1,2.3916717E-1,-1.1244327E-1,3.1588477E-1,-1.0600906E-1,1.17795266E-1,-1.00019805E-1],"categories":[],"categories_nodes":[],"categories_segments":[],"categories_sizes":[],"default_left":[0,0,0,0,0,0,0,0,0,0,0,0,0],"id":48,"left_children":[1,3,-1,5,-1,-1,7,9,-1,11,-1,-1,-1],"loss_changes":[1.6873415E0,9.930577E-1,0E0,1.1257086E0,0E0,0E0,1.261313E0,1.2660729E0,0E0,1.277947E0,0E0,0E0,0E0],"parents":[2147483647,0,0,1,1,3,3,6,6,7,7,9,9],"right_children":[2,4,-1,6,-1,-1,8,10,-1,12,-1,-1,-1],"split_conditions":[1E0,1E0,-1.3340336E-1,5.9607735E1,-1.1710079E-1,-1.8511485E-1,1E0,1E0,-1.1244327E-1,1E0,-1.0600906E-1,1.17795266E-1,-1.00019805E-1],"split_indices":[2,5,0,0,0,0,4,3,0,6,0,0,0],"split_type":[0,0,0,0,0,0,0,0,0,0,0,0,0],"sum_hessian":[3.9663685E1,3.1854382E1,7.809304E0,2.834718E1,3.507203E0,1.007621E0,2.7339558E1,2.4396242E1,2.9433153E0,2.2013008E1,2.383234E0,2.0039013E1,1.9739947E0],"tree_param":{"num_deleted":"0","num_feature":"8","num_nodes":"13","size_leaf_vector":"1"}},{"base_weights":[5.053882E-4,7.791576E-2,-1.2619615E-1,1.5812531E-1,-1.2012752E-1,2.3155311E-1,-1.1153381E-1,6.54432E-2,1.3691975E-1,-9.199981E-2,1.2209638E-1,1.6277894E-1,-6.7083746E-2],"categories":[],"categories_nodes":[],"categories_segments":[],"categories_sizes":[],"default_left":[0,0,0,0,0,0,0,0,0,0,0,0,0],"id":49,"left_children":[1,3,-1,5,-1,7,-1,9,-1,11,-1,-1,-1],"loss_changes":[1.2390736E0,1.2948934E0,0E0,1.1836046E0,0E0,9.1843116E-1,0E0,8.854412E-1,0E0,1.0909765E0,0E0,0E0,0E0],"parents":[2147483647,0,0,1,1,3,3,5,5,7,7,9,9],"right_children":[2,4,-1,6,-1,8,-1,10,-1,12,-1,-1,-1],"split_conditions":[1E0,1E0,-1.2619615E-1,1E0,-1.2012752E-1,1E0,-1.1153381E-1,1E0,1.3691975E-1,6.456123E1,1.2209638E-1,1.6277894E-1,-6.7083746E-2],"split_indices":[3,5,0,4,0,2,0,6,0,0,0,0,0],"split_type":[0,0,0,0,0,0,0,0,0,0,0,0,0],"sum_hessian":[3.6000637E1,3.1099457E1,4.90118E0,2.7206776E1,3.8926806E0,2.4390118E1,2.816659E0,1.4769721E1,9.620396E0,1.0609611E1,4.160111E0,1.28604E0,9.32357E0],"tree_param":{"num_deleted":"0","num_feature":"8","num_nodes":"13","size_leaf_vector":"1"}},{"base_weights":[5.1944297E-2,-7.670219E-2,1.3721864E-1,-2.5179026E-1,1.3486348E-1,-1.4333044E-1,1.300655E-1],"categories":[],"categories_nodes":[],"categories_segments":[],"categories_sizes":[],"default_left":[0,0,0,0,0,0,0],"id":50,"left_children":[1,3,-1,5,-1,-1,-1],"loss_changes":[2.3452709E0,3.2900517E0,0E0,4.31313E0,0E0,0E0,0E0],"parents":[2147483647,0,0,1,1,3,3],"right_children":[2,4,-1,6,-1,-1,-1],"split_conditions":[1E0,1E0,1.3721864E-1,1E0,1.3486348E-1,-1.4333044E-1,1.300655E-1],"split_indices":[5,3,0,4,0,0,0],"split_type":[0,0,0,0,0,0,0],"sum_hessian":[4.329052E1,3.3478783E1,9.811734E0,2.5512154E1,7.966631E0,1.9413736E1,6.0984173E0],"tree_param":{"num_deleted":"0","num_feature":"8","num_nodes":"7","size_leaf_vector":"1"}},{"base_weights":[-6.3121095E-2,3.3125985E-2,-1.2882595E-1,9.3151025E-2,-1.1032299E-1,-1.5675294E-1,1.425441E-1,2.1303916E-1,-1.04993604E-1,-1.0597187E-1,2.9662842E-1,1.15492955E-1,-9.840719E-2],"categories":[],"categories_nodes":[],"categories_segments":[],"categories_sizes":[],"default_left":[0,0,0,0,0,0,0,0,0,0,0,0,0],"id":51,"left_children":[1,3,-1,5,-1,-1,7,9,-1,-1,11,-1,-1],"loss_changes":[1.1845813E0,6.891682E-1,0E0,8.1861913E-1,0E0,0E0,8.883686E-1,1.1047652E0,0E0,0E0,1.1721842E0,0E0,0E0],"parents":[2147483647,0,0,1,1,3,3,6,6,7,7,10,10],"right_children":[2,4,-1,6,-1,-1,8,10,-1,-1,12,-1,-1],"split_conditions":[1E0,1E0,-1.2882595E-1,5.9607735E1,-1.1032299E-1,-1.5675294E-1,1E0,5.990535E-1,-1.04993604E-1,-1.0597187E-1,1E0,1.15492955E-1,-9.840719E-2],"split_indices":[2,4,0,0,0,0,3,7,0,0,6,0,0],"split_type":[0,0,0,0,0,0,0,0,0,0,0,0,0],"sum_hessian":[3.219672E1,2.6217491E1,5.9792304E0,2.3470684E1,2.746807E0,1.0317547E0,2.2438929E1,2.012577E1,2.3131592E0,2.1737459E0,1.7952024E1,1.6063734E1,1.8882895E0],"tree_param":{"num_deleted":"0","num_feature":"8","num_nodes":"13","size_leaf_vector":"1"}},{"base_weights":[8.569374E-3,8.195877E-2,-1.1995853E-1,1.5689093E-1,-1.1326922E-1,2.2556815E-1,-1.04049444E-1,8.051489E-2,1.3275878E-1,-4.831015E-2,1.1573501E-1,1.14573486E-1,-7.306467E-2],"categories":[],"categories_nodes":[],"categories_segments":[],"categories_sizes":[],"default_left":[0,0,0,0,0,0,0,0,0,0,0,0,0],"id":52,"left_children":[1,3,-1,5,-1,7,-1,9,-1,11,-1,-1,-1],"loss_changes":[9.433856E-1,9.7454107E-1,0E0,8.933338E-1,0E0,6.3598025E-1,0E0,5.69685E-1,0E0,9.953451E-1,0E0,0E0,0E0],"parents":[2147483647,0,0,1,1,3,3,5,5,7,7,9,9],"right_children":[2,4,-1,6,-1,8,-1,10,-1,12,-1,-1,-1],"split_conditions":[1E0,1E0,-1.1995853E-1,1E0,-1.1326922E-1,1E0,-1.04049444E-1,1E0,1.3275878E-1,5.990535E-1,1.1573501E-1,1.14573486E-1,-7.306467E-2],"split_indices":[3,5,0,4,0,2,0,6,0,7,0,0,0],"split_type":[0,0,0,0,0,0,0,0,0,0,0,0,0],"sum_hessian":[2.9379585E1,2.558216E1,3.797426E0,2.256171E1,3.0204504E0,2.0340672E1,2.2210376E0,1.3012221E1,7.3284516E0,9.742553E0,3.269668E0,2.7427008E0,6.999852E0],"tree_param":{"num_deleted":"0","num_feature":"8","num_nodes":"13","size_leaf_vector":"1"}},{"base_weights":[5.3023964E-2,-7.364443E-2,1.3338478E-1,-2.4608943E-1,1.3039106E-1,-1.4115861E-1,1.2501329E-1],"categories":[],"categories_nodes":[],"categories_segments":[],"categories_sizes":[],"default_left":[0,0,0,0,0,0,0],"id":53,"left_children":[1,3,-1,5,-1,-1,-1],"loss_changes":[1.7494289E0,2.474232E0,0E0,3.2909548E0,0E0,0E0,0E0],"parents":[2147483647,0,0,1,1,3,3],"right_children":[2,4,-1,6,-1,-1,-1],"split_conditions":[1E0,1E0,1.3338478E-1,1E0,1.3039106E-1,-1.4115861E-1,1.2501329E-1],"split_indices":[5,3,0,4,0,0,0],"split_type":[0,0,0,0,0,0,0],"sum_hessian":[3.3608974E1,2.600807E1,7.600904E0,1.9804739E1,6.2033296E0,1.5011571E1,4.7931685E0],"tree_param":{"num_deleted":"0","num_feature":"8","num_nodes":"7","size_leaf_vector":"1"}},{"base_weights":[-7.058981E-2,1.8035565E-2,-1.2352464E-1,-1.5051228E-1,6.673281E-2,1.3972196E-1,-1.06570676E-1,-9.9117756E-2,2.08854E-1,2.9120395E-1,-9.629143E-2,1.1253283E-1,-8.944598E-2],"categories":[],"categories_nodes":[],"categories_segments":[],"categories_sizes":[],"default_left":[0,0,0,0,0,0,0,0,0,0,0,0,0],"id":54,"left_children":[1,3,-1,-1,5,7,-1,-1,9,11,-1,-1,-1],"loss_changes":[8.246751E-1,6.0077715E-1,0E0,0E0,7.0800644E-1,6.8461084E-1,0E0,0E0,8.4069884E-1,8.707348E-1,0E0,0E0,0E0],"parents":[2147483647,0,0,1,1,4,4,5,5,8,8,9,9],"right_children":[2,4,-1,-1,6,8,-1,-1,10,12,-1,-1,-1],"split_conditions":[1E0,5.9607735E1,-1.2352464E-1,-1.5051228E-1,1E0,5.990535E-1,-1.06570676E-1,-9.9117756E-2,1E0,1E0,-9.629143E-2,1.1253283E-1,-8.944598E-2],"split_indices":[2,0,0,0,5,7,0,0,4,3,0,0,0],"split_type":[0,0,0,0,0,0,0,0,0,0,0,0,0],"sum_hessian":[2.6029594E1,2.1413885E1,4.615708E0,1.0375528E0,2.0376333E1,1.794177E1,2.4345622E0,1.8156643E0,1.6126106E1,1.4346613E1,1.779494E0,1.2876886E1,1.4697264E0],"tree_param":{"num_deleted":"0","num_feature":"8","num_nodes":"13","size_leaf_vector":"1"}},{"base_weights":[8.996152E-3,7.97131E-2,-1.1313528E-1,1.5148646E-1,-1.05866365E-1,2.1803829E-1,-9.6340895E-2,8.257983E-2,1.2790528E-1,1.5288985E-1,-5.8027627E-3,-4.93441E-2,1.0847266E-1],"categories":[],"categories_nodes":[],"categories_segments":[],"categories_sizes":[],"default_left":[0,0,0,0,0,0,0,0,0,0,0,0,0],"id":55,"left_children":[1,3,-1,5,-1,7,-1,9,-1,-1,11,-1,-1],"loss_changes":[6.994314E-1,7.224259E-1,0E0,6.732781E-1,0E0,4.5598853E-1,0E0,4.4790125E-1,0E0,0E0,6.864786E-1,0E0,0E0],"parents":[2147483647,0,0,1,1,3,3,5,5,7,7,10,10],"right_children":[2,4,-1,6,-1,8,-1,10,-1,-1,12,-1,-1],"split_conditions":[1E0,1E0,-1.1313528E-1,1E0,-1.05866365E-1,1E0,-9.6340895E-2,5.9607735E1,1.2790528E-1,1.5288985E-1,1E0,-4.93441E-2,1.0847266E-1],"split_indices":[3,5,0,4,0,2,0,0,0,0,6,0,0],"split_type":[0,0,0,0,0,0,0,0,0,0,0,0,0],"sum_hessian":[2.351476E1,2.0545406E1,2.9693527E0,1.8179111E1,2.3662944E0,1.6407387E1,1.7717247E0,1.0788453E1,5.6189346E0,1.0326433E0,9.75581E0,7.198799E0,2.5570102E0],"tree_param":{"num_deleted":"0","num_feature":"8","num_nodes":"13","size_leaf_vector":"1"}},{"base_weights":[6.1339978E-2,-6.822452E-2,1.2994136E-1,-2.379901E-1,1.2535997E-1,-1.384913E-1,1.194523E-1],"categories":[],"categories_nodes":[],"categories_segments":[],"categories_sizes":[],"default_left":[0,0,0,0,0,0,0],"id":56,"left_children":[1,3,-1,5,-1,-1,-1],"loss_changes":[1.3547263E0,1.8542011E0,0E0,2.5167465E0,0E0,0E0,0E0],"parents":[2147483647,0,0,1,1,3,3],"right_children":[2,4,-1,6,-1,-1,-1],"split_conditions":[1E0,1E0,1.2994136E-1,1E0,1.2535997E-1,-1.384913E-1,1.194523E-1],"split_indices":[5,3,0,4,0,0,0],"split_type":[0,0,0,0,0,0,0],"sum_hessian":[2.6509365E1,2.0264183E1,6.2451825E0,1.5397175E1,4.8670087E0,1.1595165E1,3.80201E0],"tree_param":{"num_deleted":"0","num_feature":"8","num_nodes":"7","size_leaf_vector":"1"}},{"base_weights":[-7.697163E-2,3.453782E-3,-1.1754606E-1,-1.2987566E-1,5.206772E-2,1.20908E-1,-1.00011714E-1,-9.7074926E-2,1.972703E-1,2.851243E-1,-9.229697E-2,1.1035212E-1,-8.213219E-2],"categories":[],"categories_nodes":[],"categories_segments":[],"categories_sizes":[],"default_left":[0,0,0,0,0,0,0,0,0,0,0,0,0],"id":57,"left_children":[1,3,-1,-1,5,7,-1,-1,9,11,-1,-1,-1],"loss_changes":[5.7239544E-1,4.2463097E-1,0E0,0E0,5.165066E-1,6.055914E-1,0E0,0E0,7.1950746E-1,6.8553674E-1,0E0,0E0,0E0],"parents":[2147483647,0,0,1,1,4,4,5,5,8,8,9,9],"right_children":[2,4,-1,-1,6,8,-1,-1,10,12,-1,-1,-1],"split_conditions":[1E0,5.9607735E1,-1.1754606E-1,-1.2987566E-1,1E0,5.990535E-1,-1.00011714E-1,-9.7074926E-2,1E0,1E0,-9.229697E-2,1.1035212E-1,-8.213219E-2],"split_indices":[2,0,0,0,6,7,0,0,5,4,0,0,0],"split_type":[0,0,0,0,0,0,0,0,0,0,0,0,0],"sum_hessian":[2.1551384E1,1.7954172E1,3.5972118E0,1.0072818E0,1.6946892E1,1.4961121E1,1.9857708E0,1.718804E0,1.3242316E1,1.1650517E1,1.591799E0,1.0446325E1,1.2041924E0],"tree_param":{"num_deleted":"0","num_feature":"8","num_nodes":"13","size_leaf_vector":"1"}},{"base_weights":[1.5843153E-2,8.248807E-2,-1.0587006E-1,1.4918706E-1,-9.810666E-2,2.1142383E-1,-8.864261E-2,9.280893E-2,1.2234605E-1,-2.0711077E-2,1.05176695E-1,1.0484251E-1,-6.0532983E-2],"categories":[],"categories_nodes":[],"categories_segments":[],"categories_sizes":[],"default_left":[0,0,0,0,0,0,0,0,0,0,0,0,0],"id":58,"left_children":[1,3,-1,5,-1,7,-1,9,-1,11,-1,-1,-1],"loss_changes":[5.359216E-1,5.4800165E-1,0E0,5.1643324E-1,0E0,3.109452E-1,0E0,3.183115E-1,0E0,6.2844497E-1,0E0,0E0,0E0],"parents":[2147483647,0,0,1,1,3,3,5,5,7,7,9,9],"right_children":[2,4,-1,6,-1,8,-1,10,-1,12,-1,-1,-1],"split_conditions":[1E0,1E0,-1.0587006E-1,1E0,-9.810666E-2,1E0,-8.864261E-2,1E0,1.2234605E-1,5.990535E-1,1.05176695E-1,1.0484251E-1,-6.0532983E-2],"split_indices":[3,5,0,4,0,2,0,6,0,7,0,0,0],"split_type":[0,0,0,0,0,0,0,0,0,0,0,0,0],"sum_hessian":[1.9623163E1,1.7276917E1,2.3462481E0,1.5403728E1,1.8731881E0,1.3972595E1,1.4311323E0,9.629408E0,4.3431873E0,7.323829E0,2.3055787E0,2.1001E0,5.223729E0],"tree_param":{"num_deleted":"0","num_feature":"8","num_nodes":"13","size_leaf_vector":"1"}},{"base_weights":[6.424163E-2,-6.254031E-2,1.2517965E-1,-2.2920631E-1,1.199178E-1,-1.3542879E-1,1.1358984E-1],"categories":[],"categories_nodes":[],"categories_segments":[],"categories_sizes":[],"default_left":[0,0,0,0,0,0,0],"id":59,"left_children":[1,3,-1,5,-1,-1,-1],"loss_changes":[1.0078175E0,1.4020039E0,0E0,1.9453695E0,0E0,0E0,0E0],"parents":[2147483647,0,0,1,1,3,3],"right_children":[2,4,-1,6,-1,-1,-1],"split_conditions":[1E0,1E0,1.2517965E-1,1E0,1.199178E-1,-1.3542879E-1,1.1358984E-1],"split_indices":[5,3,0,4,0,0,0],"split_type":[0,0,0,0,0,0,0],"sum_hessian":[2.093446E1,1.6008242E1,4.9262176E0,1.2136649E1,3.8715923E0,9.075874E0,3.0607743E0],"tree_param":{"num_deleted":"0","num_feature":"8","num_nodes":"7","size_leaf_vector":"1"}},{"base_weights":[-8.530768E-2,-1.1480707E-2,-1.1101286E-1,-1.0692052E-1,4.0890485E-2,1.0738423E-1,-9.27391E-2,-8.854691E-2,1.7958768E-1,2.672346E-1,-8.606836E-2,1.0646489E-1,-7.75374E-2],"categories":[],"categories_nodes":[],"categories_segments":[],"categories_sizes":[],"default_left":[0,0,0,0,0,0,0,0,0,0,0,0,0],"id":60,"left_children":[1,3,-1,-1,5,7,-1,-1,9,11,-1,-1,-1],"loss_changes":[3.9052027E-1,3.0260184E-1,0E0,0E0,3.762611E-1,4.3460366E-1,0E0,0E0,5.5724263E-1,5.7149774E-1,0E0,0E0,0E0],"parents":[2147483647,0,0,1,1,4,4,5,5,8,8,9,9],"right_children":[2,4,-1,-1,6,8,-1,-1,10,12,-1,-1,-1],"split_conditions":[1E0,6.317855E1,-1.1101286E-1,-1.0692052E-1,1E0,5.990535E-1,-9.27391E-2,-8.854691E-2,1E0,1E0,-8.606836E-2,1.0646489E-1,-7.75374E-2],"split_indices":[2,0,0,0,6,7,0,0,3,5,0,0,0],"split_type":[0,0,0,0,0,0,0,0,0,0,0,0,0],"sum_hessian":[1.7779604E1,1.4944954E1,2.8346508E0,1.2047921E0,1.3740162E1,1.2129178E1,1.6109837E0,1.3750898E0,1.0754088E1,9.412677E0,1.3414116E0,8.346066E0,1.0666106E0],"tree_param":{"num_deleted":"0","num_feature":"8","num_nodes":"13","size_leaf_vector":"1"}},{"base_weights":[1.5971933E-2,8.0027595E-2,-9.836195E-2,1.4377193E-1,-9.024945E-2,2.0416601E-1,-8.1169635E-2,9.380435E-2,1.16134256E-1,1.173091E-1,2.8038411E-3,-4.3738488E-2,9.7473E-2],"categories":[],"categories_nodes":[],"categories_segments":[],"categories_sizes":[],"default_left":[0,0,0,0,0,0,0,0,0,0,0,0,0],"id":61,"left_children":[1,3,-1,5,-1,7,-1,9,-1,-1,11,-1,-1],"loss_changes":[4.020402E-1,4.1194788E-1,0E0,3.9771125E-1,0E0,2.1636659E-1,0E0,2.4573444E-1,0E0,0E0,4.2999473E-1,0E0,0E0],"parents":[2147483647,0,0,1,1,3,3,5,5,7,7,10,10],"right_children":[2,4,-1,6,-1,8,-1,10,-1,-1,12,-1,-1],"split_conditions":[1E0,1E0,-9.836195E-2,1E0,-9.024945E-2,1E0,-8.1169635E-2,6.317855E1,1.16134256E-1,1.173091E-1,1E0,-4.3738488E-2,9.7473E-2],"split_indices":[3,5,0,4,0,2,0,0,0,0,6,0,0],"split_type":[0,0,0,0,0,0,0,0,0,0,0,0,0],"sum_hessian":[1.6062315E1,1.41867E1,1.8756151E0,1.2685959E1,1.5007406E0,1.1514801E1,1.1711581E0,8.125756E0,3.3890448E0,1.1318604E0,6.9938955E0,5.160532E0,1.8333637E0],"tree_param":{"num_deleted":"0","num_feature":"8","num_nodes":"13","size_leaf_vector":"1"}},{"base_weights":[7.456295E-2,-4.7497626E-2,1.2029242E-1,-2.1710543E-1,1.1526162E-1,-1.3171868E-1,1.07549936E-1],"categories":[],"categories_nodes":[],"categories_segments":[],"categories_sizes":[],"default_left":[0,0,0,0,0,0,0],"id":62,"left_children":[1,3,-1,5,-1,-1,-1],"loss_changes":[7.2944313E-1,1.0990927E0,0E0,1.5113806E0,0E0,0E0,0E0],"parents":[2147483647,0,0,1,1,3,3],"right_children":[2,4,-1,6,-1,-1,-1],"split_conditions":[1E0,1E0,1.2029242E-1,1E0,1.1526162E-1,-1.3171868E-1,1.07549936E-1],"split_indices":[3,5,0,4,0,0,0],"split_type":[0,0,0,0,0,0,0],"sum_hessian":[1.6830372E1,1.2871575E1,3.9587963E0,9.597857E0,3.2737179E0,7.0980306E0,2.4998267E0],"tree_param":{"num_deleted":"0","num_feature":"8","num_nodes":"7","size_leaf_vector":"1"}},{"base_weights":[-9.11431E-2,-2.4005655E-2,-1.04098804E-1,-9.386133E-2,2.5742378E-2,-8.779478E-2,8.952365E-2,1.665755E-1,-8.5160896E-2,7.467874E-2,-7.874217E-2],"categories":[],"categories_nodes":[],"categories_segments":[],"categories_sizes":[],"default_left":[0,0,0,0,0,0,0,0,0,0,0],"id":63,"left_children":[1,3,-1,-1,5,-1,7,9,-1,-1,-1],"loss_changes":[2.672938E-1,2.0614846E-1,0E0,0E0,2.8376958E-1,0E0,3.733303E-1,4.1953117E-1,0E0,0E0,0E0],"parents":[2147483647,0,0,1,1,4,4,6,6,7,7],"right_children":[2,4,-1,-1,6,-1,8,10,-1,-1,-1],"split_conditions":[1E0,6.214465E1,-1.04098804E-1,-9.386133E-2,5.990535E-1,-8.779478E-2,1E0,1E0,-8.5160896E-2,7.467874E-2,-7.874217E-2],"split_indices":[2,0,0,0,7,0,6,4,0,0,0],"split_type":[0,0,0,0,0,0,0,0,0,0,0],"sum_hessian":[1.50458E1,1.278481E1,2.2609901E0,1.1012442E0,1.1683566E1,1.3510237E0,1.0332542E1,9.024228E0,1.3083142E0,7.9232225E0,1.1010057E0],"tree_param":{"num_deleted":"0","num_feature":"8","num_nodes":"11","size_leaf_vector":"1"}},{"base_weights":[1.6532702E-2,7.661585E-2,-9.064978E-2,1.364111E-1,-8.270942E-2,4.6697967E-2,9.0878196E-2,8.850085E-2,-5.492682E-2,1.0490295E-1,-1.7854889E-1,-1.1667586E-1,7.361687E-2],"categories":[],"categories_nodes":[],"categories_segments":[],"categories_sizes":[],"default_left":[0,0,0,0,0,0,0,0,0,0,0,0,0],"id":64,"left_children":[1,3,-1,5,-1,7,-1,-1,9,-1,11,-1,-1],"loss_changes":[3.0182043E-1,3.1236917E-1,0E0,1.624146E-1,0E0,2.398543E-1,0E0,0E0,4.1916987E-1,0E0,6.416884E-1,0E0,0E0],"parents":[2147483647,0,0,1,1,3,3,5,5,8,8,10,10],"right_children":[2,4,-1,6,-1,8,-1,-1,10,-1,12,-1,-1],"split_conditions":[1E0,1E0,-9.064978E-2,1E0,-8.270942E-2,5.990535E-1,9.0878196E-2,8.850085E-2,5.9607735E1,1.0490295E-1,1E0,-1.1667586E-1,7.361687E-2],"split_indices":[3,5,0,2,0,7,0,0,0,0,6,0,0],"split_type":[0,0,0,0,0,0,0,0,0,0,0,0,0],"sum_hessian":[1.3553146E1,1.2042427E1,1.5107191E0,1.081902E1,1.2234068E0,7.863098E0,2.9559221E0,1.7309412E0,6.132157E0,1.0071752E0,5.124982E0,3.480473E0,1.6445086E0],"tree_param":{"num_deleted":"0","num_feature":"8","num_nodes":"13","size_leaf_vector":"1"}},{"base_weights":[8.294632E-2,-3.354062E-2,1.1465012E-1,-1.9417724E-1,1.0942628E-1,-1.2764575E-1,1.03629835E-1],"categories":[],"categories_nodes":[],"categories_segments":[],"categories_sizes":[],"default_left":[0,0,0,0,0,0,0],"id":65,"left_children":[1,3,-1,5,-1,-1,-1],"loss_changes":[5.2625644E-1,8.080243E-1,0E0,1.2532622E0,0E0,0E0,0E0],"parents":[2147483647,0,0,1,1,3,3],"right_children":[2,4,-1,6,-1,-1,-1],"split_conditions":[1E0,1E0,1.1465012E-1,1E0,1.0942628E-1,-1.2764575E-1,1.03629835E-1],"split_indices":[5,3,0,4,0,0,0],"split_type":[0,0,0,0,0,0,0],"sum_hessian":[1.3730563E1,1.0522176E1,3.2083874E0,7.863301E0,2.6588752E0,5.652011E0,2.2112901E0],"tree_param":{"num_deleted":"0","num_feature":"8","num_nodes":"7","size_leaf_vector":"1"}},{"base_weights":[-1.0007763E-1,-3.827962E-2,-9.735531E-2,1.349623E-2,-8.203238E-2,-8.374485E-2,7.323181E-2,-8.046734E-2,4.4655178E-2],"categories":[],"categories_nodes":[],"categories_segments":[],"categories_sizes":[],"default_left":[0,0,0,0,0,0,0,0,0],"id":66,"left_children":[1,3,-1,5,-1,-1,7,-1,-1],"loss_changes":[1.7895919E-1,1.4922662E-1,0E0,2.0835222E-1,0E0,0E0,2.9087824E-1,0E0,0E0],"parents":[2147483647,0,0,1,1,3,3,6,6],"right_children":[2,4,-1,6,-1,-1,8,-1,-1],"split_conditions":[1E0,1E0,-9.735531E-2,6.214465E1,-8.203238E-2,-8.374485E-2,5.990535E-1,-8.046734E-2,4.4655178E-2],"split_indices":[2,3,0,0,0,0,7,0,0],"split_type":[0,0,0,0,0,0,0,0,0],"sum_hessian":[1.2798292E1,1.0953012E1,1.8452797E0,9.74914E0,1.2038723E0,1.0300112E0,8.719129E0,1.1190412E0,7.6000876E0],"tree_param":{"num_deleted":"0","num_feature":"8","num_nodes":"9","size_leaf_vector":"1"}},{"base_weights":[1.5568251E-2,7.29892E-2,-8.3267115E-2,1.3268182E-1,-7.7035524E-2,5.0909687E-2,8.266617E-2,9.014723E-2,-3.5203107E-2,7.822349E-2,-1.6557103E-1,-1.1077882E-1,6.9739796E-2],"categories":[],"categories_nodes":[],"categories_segments":[],"categories_sizes":[],"default_left":[0,0,0,0,0,0,0,0,0,0,0,0,0],"id":67,"left_children":[1,3,-1,5,-1,7,-1,-1,9,-1,11,-1,-1],"loss_changes":[2.2880092E-1,2.5360328E-1,0E0,1.0399611E-1,0E0,1.7502731E-1,0E0,0E0,2.9719394E-1,0E0,5.059958E-1,0E0,0E0],"parents":[2147483647,0,0,1,1,3,3,5,5,8,8,10,10],"right_children":[2,4,-1,6,-1,8,-1,-1,10,-1,12,-1,-1],"split_conditions":[1E0,1E0,-8.3267115E-2,1E0,-7.7035524E-2,6.456123E1,8.266617E-2,9.014723E-2,5.990535E-1,7.822349E-2,1E0,-1.1077882E-1,6.9739796E-2],"split_indices":[3,4,0,2,0,0,0,0,7,0,6,0,0],"split_type":[0,0,0,0,0,0,0,0,0,0,0,0,0],"sum_hessian":[1.1389975E1,1.0152229E1,1.2377455E0,9.10228E0,1.0499495E0,6.6516E0,2.4506793E0,1.0676692E0,5.583931E0,1.40175E0,4.182181E0,2.8142867E0,1.3678942E0],"tree_param":{"num_deleted":"0","num_feature":"8","num_nodes":"13","size_leaf_vector":"1"}},{"base_weights":[9.444121E-2,-1.9868841E-2,1.1042037E-1,-1.7877857E-1,1.0471352E-1,-1.2341129E-1,9.888593E-2],"categories":[],"categories_nodes":[],"categories_segments":[],"categories_sizes":[],"default_left":[0,0,0,0,0,0,0],"id":68,"left_children":[1,3,-1,5,-1,-1,-1],"loss_changes":[4.0079916E-1,6.382104E-1,0E0,1.0255736E0,0E0,0E0,0E0],"parents":[2147483647,0,0,1,1,3,3],"right_children":[2,4,-1,6,-1,-1,-1],"split_conditions":[1E0,1E0,1.1042037E-1,1E0,1.0471352E-1,-1.2341129E-1,9.888593E-2],"split_indices":[3,5,0,4,0,0,0],"split_type":[0,0,0,0,0,0,0],"sum_hessian":[1.1580171E1,8.822062E0,2.75811E0,6.526264E0,2.295797E0,4.608653E0,1.9176111E0],"tree_param":{"num_deleted":"0","num_feature":"8","num_nodes":"7","size_leaf_vector":"1"}},{"base_weights":[-1.04241855E-1,-4.7557402E-2,-9.068437E-2,3.607925E-3,-7.805154E-2,-7.241211E-2,6.0977224E-2,-6.7286186E-2,3.959733E-2],"categories":[],"categories_nodes":[],"categories_segments":[],"categories_sizes":[],"default_left":[0,0,0,0,0,0,0,0,0],"id":69,"left_children":[1,3,-1,5,-1,-1,7,-1,-1],"loss_changes":[1.224879E-1,1.1696343E-1,0E0,1.4940265E-1,0E0,0E0,2.0307195E-1,0E0,0E0],"parents":[2147483647,0,0,1,1,3,3,6,6],"right_children":[2,4,-1,6,-1,-1,8,-1,-1],"split_conditions":[1E0,1E0,-9.068437E-2,6.317855E1,-7.805154E-2,-7.241211E-2,6.4122695E-1,-6.7286186E-2,3.959733E-2],"split_indices":[2,5,0,0,0,0,7,0,0],"split_type":[0,0,0,0,0,0,0,0,0],"sum_hessian":[1.1191931E1,9.665525E0,1.526405E0,8.583056E0,1.0824689E0,1.0200053E0,7.5630517E0,1.0772704E0,6.485781E0],"tree_param":{"num_deleted":"0","num_feature":"8","num_nodes":"9","size_leaf_vector":"1"}},{"base_weights":[1.5604544E-2,7.247324E-2,-7.782139E-2,5.457011E-3,6.140471E-2,6.8492495E-2,-7.885024E-2,6.565507E-2,-1.8284653E-1,-1.0986231E-1,5.3443927E-2],"categories":[],"categories_nodes":[],"categories_segments":[],"categories_sizes":[],"default_left":[0,0,0,0,0,0,0,0,0,0,0],"id":70,"left_children":[1,3,-1,5,-1,-1,7,-1,9,-1,-1],"loss_changes":[1.8820745E-1,8.533685E-2,0E0,1.5896246E-1,0E0,0E0,2.3155403E-1,0E0,4.047914E-1,0E0,0E0],"parents":[2147483647,0,0,1,1,3,3,6,6,8,8],"right_children":[2,4,-1,6,-1,-1,8,-1,10,-1,-1],"split_conditions":[1E0,1E0,-7.782139E-2,5.990535E-1,6.140471E-2,6.8492495E-2,6.214465E1,6.565507E-2,1E0,-1.0986231E-1,5.3443927E-2],"split_indices":[5,2,0,7,0,0,0,0,6,0,0],"split_type":[0,0,0,0,0,0,0,0,0,0,0],"sum_hessian":[9.832092E0,8.757593E0,1.0744988E0,6.5026855E0,2.2549078E0,1.316006E0,5.18668E0,1.0568707E0,4.129809E0,2.7291374E0,1.4006716E0],"tree_param":{"num_deleted":"0","num_feature":"8","num_nodes":"11","size_leaf_vector":"1"}},{"base_weights":[1.0115082E-1,-1.50364395E-2,1.0676567E-1,-1.6859035E-1,9.913772E-2,-1.19199075E-1,9.3783684E-2],"categories":[],"categories_nodes":[],"categories_segments":[],"categories_sizes":[],"default_left":[0,0,0,0,0,0,0],"id":71,"left_children":[1,3,-1,5,-1,-1,-1],"loss_changes":[3.2777065E-1,5.0351584E-1,0E0,8.4030664E-1,0E0,0E0,0E0],"parents":[2147483647,0,0,1,1,3,3],"right_children":[2,4,-1,6,-1,-1,-1],"split_conditions":[1E0,1E0,1.0676567E-1,1E0,9.913772E-2,-1.19199075E-1,9.3783684E-2],"split_indices":[5,4,0,3,0,0,0],"split_type":[0,0,0,0,0,0,0],"sum_hessian":[9.893677E0,7.440814E0,2.452863E0,5.505813E0,1.9350007E0,3.8500078E0,1.6558055E0],"tree_param":{"num_deleted":"0","num_feature":"8","num_nodes":"7","size_leaf_vector":"1"}},{"base_weights":[-1.0925214E-1,-5.681199E-2,-8.451902E-2,-4.362668E-3,-7.569158E-2,-6.3706085E-2,5.20937E-2,-5.702856E-2,3.5430852E-2],"categories":[],"categories_nodes":[],"categories_segments":[],"categories_sizes":[],"default_left":[0,0,0,0,0,0,0,0,0],"id":72,"left_children":[1,3,-1,5,-1,-1,7,-1,-1],"loss_changes":[8.2597464E-2,9.746109E-2,0E0,1.12008244E-1,0E0,0E0,1.4338064E-1,0E0,0E0],"parents":[2147483647,0,0,1,1,3,3,6,6],"right_children":[2,4,-1,6,-1,-1,8,-1,-1],"split_conditions":[1E0,1E0,-8.451902E-2,6.456123E1,-7.569158E-2,-6.3706085E-2,6.645939E-1,-5.702856E-2,3.5430852E-2],"split_indices":[2,6,0,0,0,0,7,0,0],"split_type":[0,0,0,0,0,0,0,0,0],"sum_hessian":[9.901674E0,8.6125145E0,1.28916E0,7.5966964E0,1.0158179E0,1.0322835E0,6.5644126E0,1.0033327E0,5.56108E0],"tree_param":{"num_deleted":"0","num_feature":"8","num_nodes":"9","size_leaf_vector":"1"}},{"base_weights":[1.6426802E-2,5.4093085E-2,-3.0379888E-2,5.484772E-2,-8.663216E-2,-1.9756094E-1,3.578491E-2,-1.09136865E-1,3.905537E-2],"categories":[],"categories_nodes":[],"categories_segments":[],"categories_sizes":[],"default_left":[0,0,0,0,0,0,0,0,0],"id":73,"left_children":[1,-1,3,-1,5,7,-1,-1,-1],"loss_changes":[7.966613E-2,0E0,1.1632654E-1,0E0,1.9049507E-1,3.266234E-1,0E0,0E0,0E0],"parents":[2147483647,0,0,2,2,4,4,5,5],"right_children":[2,-1,4,-1,6,8,-1,-1,-1],"split_conditions":[5.990535E-1,5.4093085E-2,6.214465E1,5.484772E-2,1E0,1E0,3.578491E-2,-1.09136865E-1,3.905537E-2],"split_indices":[7,0,0,0,2,6,0,0,0],"split_type":[0,0,0,0,0,0,0,0,0],"sum_hessian":[8.671469E0,1.2927947E0,7.3786736E0,1.0706449E0,6.3080287E0,4.1259212E0,2.1821077E0,2.6645286E0,1.4613924E0],"tree_param":{"num_deleted":"0","num_feature":"8","num_nodes":"9","size_leaf_vector":"1"}},{"base_weights":[1.075859E-1,8.7375543E-4,1.0098769E-1,-1.5412629E-1,9.6382014E-2,-1.1496669E-1,8.998335E-2],"categories":[],"categories_nodes":[],"categories_segments":[],"categories_sizes":[],"default_left":[0,0,0,0,0,0,0],"id":74,"left_children":[1,3,-1,5,-1,-1,-1],"loss_changes":[2.3417917E-1,4.2430905E-1,0E0,7.1434975E-1,0E0,0E0,0E0],"parents":[2147483647,0,0,1,1,3,3],"right_children":[2,4,-1,6,-1,-1,-1],"split_conditions":[1E0,1E0,1.0098769E-1,1E0,9.6382014E-2,-1.1496669E-1,8.998335E-2],"split_indices":[4,3,0,5,0,0,0],"split_type":[0,0,0,0,0,0,0],"sum_hessian":[8.593317E0,6.5468717E0,2.0464456E0,4.762074E0,1.7847974E0,3.2688463E0,1.493228E0],"tree_param":{"num_deleted":"0","num_feature":"8","num_nodes":"7","size_leaf_vector":"1"}},{"base_weights":[-1.145329E-1,-6.5348014E-2,-7.9095215E-2,-5.670517E-2,-2.47088E-2,-5.2862104E-2,2.4286425E-2,3.53477E-2,-9.95726E-4,7.8744994E-4,1.307023E-2,-2.8765374E-3,2.4341948E-3],"categories":[],"categories_nodes":[],"categories_segments":[],"categories_sizes":[],"default_left":[0,0,0,0,0,0,0,0,0,0,0,0,0],"id":75,"left_children":[1,3,-1,-1,5,-1,7,9,11,-1,-1,-1,-1],"loss_changes":[5.5039734E-2,3.925058E-2,0E0,0E0,6.1641745E-2,0E0,1.913995E-3,1.1500795E-3,3.1399078E-4,0E0,0E0,0E0,0E0],"parents":[2147483647,0,0,1,1,4,4,6,6,7,7,8,8],"right_children":[2,4,-1,-1,6,-1,8,10,12,-1,-1,-1,-1],"split_conditions":[1E0,6.490277E1,-7.9095215E-2,-5.670517E-2,6.77632E-1,-5.2862104E-2,9.68449E-1,2E0,8.522444E1,7.8744994E-4,1.307023E-2,-2.8765374E-3,2.4341948E-3],"split_indices":[2,0,0,0,7,0,7,1,0,0,0,0,0],"split_type":[0,0,0,0,0,0,0,0,0,0,0,0,0],"sum_hessian":[8.853479E0,7.739064E0,1.1144149E0,1.0110955E0,6.7279687E0,1.0096418E0,5.7183266E0,3.7009735E0,2.0173533E0,1.0078889E0,2.6930845E0,1.0110894E0,1.0062639E0],"tree_param":{"num_deleted":"0","num_feature":"8","num_nodes":"13","size_leaf_vector":"1"}},{"base_weights":[1.4357547E-2,4.952619E-2,-3.063039E-2,4.8635233E-2,-8.57609E-2,-1.792844E-1,3.692538E-2,-1.04222395E-1,2.8747667E-2],"categories":[],"categories_nodes":[],"categories_segments":[],"categories_sizes":[],"default_left":[0,0,0,0,0,0,0,0,0],"id":76,"left_children":[1,-1,3,-1,5,7,-1,-1,-1],"loss_changes":[6.42778E-2,0E0,9.433793E-2,0E0,1.4980446E-1,2.6104546E-1,0E0,0E0,0E0],"parents":[2147483647,0,0,2,2,4,4,5,5],"right_children":[2,-1,4,-1,6,8,-1,-1,-1],"split_conditions":[5.990535E-1,4.952619E-2,6.214465E1,4.8635233E-2,1E0,1E0,3.692538E-2,-1.04222395E-1,2.8747667E-2],"split_indices":[7,0,0,0,6,2,0,0,0],"split_type":[0,0,0,0,0,0,0,0,0],"sum_hessian":[7.7333646E0,1.1639663E0,6.5693984E0,1.0294864E0,5.5399117E0,3.924168E0,1.6157438E0,2.272571E0,1.6515969E0],"tree_param":{"num_deleted":"0","num_feature":"8","num_nodes":"9","size_leaf_vector":"1"}},{"base_weights":[1.16112165E-1,1.1298982E-2,9.75509E-2,-1.4145675E-1,9.284196E-2,-1.10823795E-1,8.646372E-2],"categories":[],"categories_nodes":[],"categories_segments":[],"categories_sizes":[],"default_left":[0,0,0,0,0,0,0],"id":77,"left_children":[1,3,-1,5,-1,-1,-1],"loss_changes":[1.856255E-1,3.5305458E-1,0E0,6.1346054E-1,0E0,0E0,0E0],"parents":[2147483647,0,0,1,1,3,3],"right_children":[2,4,-1,6,-1,-1,-1],"split_conditions":[1E0,1E0,9.75509E-2,1E0,9.284196E-2,-1.10823795E-1,8.646372E-2],"split_indices":[4,3,0,5,0,0,0],"split_type":[0,0,0,0,0,0,0],"sum_hessian":[7.6390896E0,5.7901726E0,1.848917E0,4.1762533E0,1.6139194E0,2.8202448E0,1.3560084E0],"tree_param":{"num_deleted":"0","num_feature":"8","num_nodes":"7","size_leaf_vector":"1"}},{"base_weights":[-1.1477848E-1,-1.4989556E-1,-6.0533695E-2,-1.4255447E-2,-1.8537754E-1,-3.2838803E-2,-2.3093332E-2,-6.785736E-2,-1.955466E-2,3.771877E-3,-1.17976805E-2],"categories":[],"categories_nodes":[],"categories_segments":[],"categories_sizes":[],"default_left":[0,0,0,0,0,0,0,0,0,0,0],"id":78,"left_children":[1,3,5,-1,7,-1,9,-1,-1,-1,-1],"loss_changes":[8.18786E-3,8.7117255E-3,7.0684403E-3,0E0,1.1364743E-3,0E0,2.9462494E-3,0E0,0E0,0E0,0E0],"parents":[2147483647,0,0,1,1,2,2,4,4,6,6],"right_children":[2,4,6,-1,8,-1,10,-1,-1,-1,-1],"split_conditions":[4E0,1E0,7.785994E-1,-1.4255447E-2,7.6885445E1,-3.2838803E-2,7.993705E1,-6.785736E-2,-1.955466E-2,3.771877E-3,-1.17976805E-2],"split_indices":[1,1,7,0,0,0,0,0,0,0,0],"split_type":[0,0,0,0,0,0,0,0,0,0,0],"sum_hessian":[8.061589E0,3.8232012E0,4.2383876E0,1.5860715E0,2.23713E0,1.003417E0,3.2349706E0,1.0117242E0,1.2254056E0,1.0823092E0,2.1526613E0],"tree_param":{"num_deleted":"0","num_feature":"8","num_nodes":"11","size_leaf_vector":"1"}},{"base_weights":[1.2826533E-2,4.550132E-2,-2.992654E-2,-9.214887E-2,3.5210803E-2,3.9812185E-2,-1.7349483E-1,-9.943802E-2,2.5471166E-2],"categories":[],"categories_nodes":[],"categories_segments":[],"categories_sizes":[],"default_left":[0,0,0,0,0,0,0,0,0],"id":79,"left_children":[1,-1,3,5,-1,-1,7,-1,-1],"loss_changes":[5.2228633E-2,0E0,7.476694E-2,1.2299755E-1,0E0,0E0,2.0966235E-1,0E0,0E0],"parents":[2147483647,0,0,2,2,3,3,6,6],"right_children":[2,-1,4,6,-1,-1,8,-1,-1],"split_conditions":[5.990535E-1,4.550132E-2,1E0,6.456123E1,3.5210803E-2,3.9812185E-2,1E0,-9.943802E-2,2.5471166E-2],"split_indices":[7,0,6,0,0,0,2,0,0],"split_type":[0,0,0,0,0,0,0,0,0],"sum_hessian":[7.0339284E0,1.0562036E0,5.9777246E0,4.4656796E0,1.5120449E0,1.0186205E0,3.4470594E0,1.9637972E0,1.4832621E0],"tree_param":{"num_deleted":"0","num_feature":"8","num_nodes":"9","size_leaf_vector":"1"}},{"base_weights":[1.1946148E-1,1.63584E-2,9.397674E-2,-1.3334996E-1,8.915712E-2,-1.0707346E-1,8.284908E-2],"categories":[],"categories_nodes":[],"categories_segments":[],"categories_sizes":[],"default_left":[0,0,0,0,0,0,0],"id":80,"left_children":[1,3,-1,5,-1,-1,-1],"loss_changes":[1.516009E-1,2.9924488E-1,0E0,5.3051364E-1,0E0,0E0,0E0],"parents":[2147483647,0,0,1,1,3,3],"right_children":[2,4,-1,6,-1,-1,-1],"split_conditions":[1E0,1E0,9.397674E-2,1E0,8.915712E-2,-1.0707346E-1,8.284908E-2],"split_indices":[4,3,0,5,0,0,0],"split_type":[0,0,0,0,0,0,0],"sum_hessian":[6.8437967E0,5.1749916E0,1.6688049E0,3.7180843E0,1.4569074E0,2.4881847E0,1.2298996E0],"tree_param":{"num_deleted":"0","num_feature":"8","num_nodes":"7","size_leaf_vector":"1"}},{"base_weights":[-1.1262226E-1,-1.2903959E-1,-1.0399728E-2,-1.3637575E-2,-1.4402503E-1,-6.2308785E-2,-2.3455886E-2],"categories":[],"categories_nodes":[],"categories_segments":[],"categories_sizes":[],"default_left":[0,0,0,0,0,0,0],"id":81,"left_children":[1,3,-1,-1,5,-1,-1],"loss_changes":[6.327428E-3,1.72396E-3,0E0,0E0,5.301811E-3,0E0,0E0],"parents":[2147483647,0,0,1,1,4,4],"right_children":[2,4,-1,-1,6,-1,-1],"split_conditions":[8E0,1E0,-1.0399728E-2,-1.3637575E-2,7.2426476E1,-6.2308785E-2,-2.3455886E-2],"split_indices":[1,1,0,0,0,0,0],"split_type":[0,0,0,0,0,0,0],"sum_hessian":[7.439109E0,5.6037126E0,1.8353963E0,1.4651858E0,4.138527E0,1.0085598E0,3.129967E0],"tree_param":{"num_deleted":"0","num_feature":"8","num_nodes":"7","size_leaf_vector":"1"}},{"base_weights":[1.1875014E-2,4.1308127E-2,-2.9118603E-2,-8.9628436E-2,3.3360746E-2,3.280409E-2,-1.6610333E-1,-9.4808385E-2,2.3368975E-2],"categories":[],"categories_nodes":[],"categories_segments":[],"categories_sizes":[],"default_left":[0,0,0,0,0,0,0,0,0],"id":82,"left_children":[1,-1,3,5,-1,-1,7,-1,-1],"loss_changes":[4.2643975E-2,0E0,6.49467E-2,9.5432326E-2,0E0,0E0,1.7332579E-1,0E0,0E0],"parents":[2147483647,0,0,2,2,3,3,6,6],"right_children":[2,-1,4,6,-1,-1,8,-1,-1],"split_conditions":[6.166842E-1,4.1308127E-2,1E0,6.640348E1,3.3360746E-2,3.280409E-2,1E0,-9.4808385E-2,2.3368975E-2],"split_indices":[7,0,6,0,0,0,2,0,0],"split_type":[0,0,0,0,0,0,0,0,0],"sum_hessian":[6.4905553E0,1.0153397E0,5.4752154E0,4.077962E0,1.3972536E0,1.0128492E0,3.0651126E0,1.7157073E0,1.3494053E0],"tree_param":{"num_deleted":"0","num_feature":"8","num_nodes":"9","size_leaf_vector":"1"}},{"base_weights":[1.20060034E-1,1.8376958E-2,9.042459E-2,-1.2715983E-1,8.528134E-2,-1.03611566E-1,7.948194E-2],"categories":[],"categories_nodes":[],"categories_segments":[],"categories_sizes":[],"default_left":[0,0,0,0,0,0,0],"id":83,"left_children":[1,3,-1,5,-1,-1,-1],"loss_changes":[1.2677655E-1,2.552672E-1,0E0,4.637217E-1,0E0,0E0,0E0],"parents":[2147483647,0,0,1,1,3,3],"right_children":[2,4,-1,6,-1,-1,-1],"split_conditions":[1E0,1E0,9.042459E-2,1E0,8.528134E-2,-1.03611566E-1,7.948194E-2],"split_indices":[5,4,0,3,0,0,0],"split_type":[0,0,0,0,0,0,0],"sum_hessian":[6.175174E0,4.6623807E0,1.5127932E0,3.3503413E0,1.3120395E0,2.2290175E0,1.1213238E0],"tree_param":{"num_deleted":"0","num_feature":"8","num_nodes":"7","size_leaf_vector":"1"}},{"base_weights":[-1.0886979E-1,-1.4001432E-1,-5.641878E-2,-1.2982647E-2,-5.107269E-2,-2.8337255E-2,-1.8114336E-2,2.9537734E-3,-9.928672E-3],"categories":[],"categories_nodes":[],"categories_segments":[],"categories_sizes":[],"default_left":[0,0,0,0,0,0,0,0,0],"id":84,"left_children":[1,3,5,-1,-1,-1,7,-1,-1],"loss_changes":[5.007781E-3,5.156122E-3,5.018536E-3,0E0,0E0,0E0,1.8080793E-3,0E0,0E0],"parents":[2147483647,0,0,1,1,2,2,6,6],"right_children":[2,4,6,-1,-1,-1,8,-1,-1],"split_conditions":[4E0,1E0,8.0865353E-1,-1.2982647E-2,-5.107269E-2,-2.8337255E-2,8.147105E1,2.9537734E-3,-9.928672E-3],"split_indices":[1,1,7,0,0,0,0,0,0],"split_type":[0,0,0,0,0,0,0,0,0],"sum_hessian":[6.9012775E0,3.2826588E0,3.6186187E0,1.3604466E0,1.9222124E0,1.0800717E0,2.538547E0,1.005226E0,1.533321E0],"tree_param":{"num_deleted":"0","num_feature":"8","num_nodes":"9","size_leaf_vector":"1"}},{"base_weights":[1.0023198E-2,3.6127955E-2,-2.8383762E-2,-8.67562E-2,3.16438E-2,2.6540851E-2,-1.5787165E-1,-9.0225846E-2,2.2180779E-2],"categories":[],"categories_nodes":[],"categories_segments":[],"categories_sizes":[],"default_left":[0,0,0,0,0,0,0,0,0],"id":85,"left_children":[1,-1,3,5,-1,-1,7,-1,-1],"loss_changes":[3.32391E-2,0E0,5.6245096E-2,7.3102504E-2,0E0,0E0,1.4593375E-1,0E0,0E0],"parents":[2147483647,0,0,2,2,3,3,6,6],"right_children":[2,-1,4,6,-1,-1,8,-1,-1],"split_conditions":[6.4122695E-1,3.6127955E-2,1E0,6.794023E1,3.16438E-2,2.6540851E-2,1E0,-9.0225846E-2,2.2180779E-2],"split_indices":[7,0,6,0,0,0,2,0,0],"split_type":[0,0,0,0,0,0,0,0,0],"sum_hessian":[6.032817E0,1.005862E0,5.0269547E0,3.7455647E0,1.2813901E0,1.0108479E0,2.7347167E0,1.5078722E0,1.2268444E0],"tree_param":{"num_deleted":"0","num_feature":"8","num_nodes":"9","size_leaf_vector":"1"}},{"base_weights":[1.19702E-1,1.946097E-2,8.69736E-2,-1.2430708E-1,8.2005344E-2,-1.00247994E-1,7.551316E-2],"categories":[],"categories_nodes":[],"categories_segments":[],"categories_sizes":[],"default_left":[0,0,0,0,0,0,0],"id":86,"left_children":[1,3,-1,5,-1,-1,-1],"loss_changes":[1.06923655E-1,2.2466566E-1,0E0,4.015438E-1,0E0,0E0,0E0],"parents":[2147483647,0,0,1,1,3,3],"right_children":[2,4,-1,6,-1,-1,-1],"split_conditions":[1E0,1E0,8.69736E-2,1E0,8.2005344E-2,-1.00247994E-1,7.551316E-2],"split_indices":[3,4,0,5,0,0,0],"split_type":[0,0,0,0,0,0,0],"sum_hessian":[5.5974355E0,4.224094E0,1.3733419E0,3.022794E0,1.2012997E0,2.0115051E0,1.0112891E0],"tree_param":{"num_deleted":"0","num_feature":"8","num_nodes":"7","size_leaf_vector":"1"}},{"base_weights":[-1.05099276E-1,-1.1933576E-1,-9.708656E-3,-1.2306301E-2,-1.3212246E-1,-4.7816943E-2,-1.7153943E-2],"categories":[],"categories_nodes":[],"categories_segments":[],"categories_sizes":[],"default_left":[0,0,0,0,0,0,0],"id":87,"left_children":[1,3,-1,-1,5,-1,-1],"loss_changes":[3.8300753E-3,4.2850524E-4,0E0,0E0,2.252832E-4,0E0,0E0],"parents":[2147483647,0,0,1,1,4,4],"right_children":[2,4,-1,-1,6,-1,-1],"split_conditions":[8E0,1E0,-9.708656E-3,-1.2306301E-2,4E0,-4.7816943E-2,-1.7153943E-2],"split_indices":[1,1,0,0,1,0,0],"split_type":[0,0,0,0,0,0,0],"sum_hessian":[6.4281898E0,4.8401957E0,1.5879943E0,1.2699885E0,3.570207E0,1.7915431E0,1.778664E0],"tree_param":{"num_deleted":"0","num_feature":"8","num_nodes":"7","size_leaf_vector":"1"}},{"base_weights":[8.0149E-3,-3.1262536E-2,2.9614123E-2,2.796681E-2,-8.1023395E-2,-1.5915024E-1,2.0703172E-2,1.260777E-2,-8.12942E-2],"categories":[],"categories_nodes":[],"categories_segments":[],"categories_sizes":[],"default_left":[0,0,0,0,0,0,0,0,0],"id":88,"left_children":[1,3,-1,-1,5,7,-1,-1,-1],"loss_changes":[2.672486E-2,4.0940765E-2,0E0,0E0,6.2390253E-2,8.307416E-2,0E0,0E0,0E0],"parents":[2147483647,0,0,1,1,4,4,5,5],"right_children":[2,4,-1,-1,6,8,-1,-1,-1],"split_conditions":[1E0,6.640348E1,2.9614123E-2,2.796681E-2,1E0,7.655978E-1,2.0703172E-2,1.260777E-2,-8.12942E-2],"split_indices":[6,0,0,0,2,7,0,0,0],"split_type":[0,0,0,0,0,0,0,0,0],"sum_hessian":[5.6356106E0,4.3898754E0,1.2457352E0,1.0042242E0,3.3856514E0,2.1863809E0,1.1992706E0,1.0041592E0,1.1822217E0],"tree_param":{"num_deleted":"0","num_feature":"8","num_nodes":"9","size_leaf_vector":"1"}},{"base_weights":[1.1930793E-1,2.0575432E-2,8.35748E-2,-3.5772372E-2,7.845666E-2],"categories":[],"categories_nodes":[],"categories_segments":[],"categories_sizes":[],"default_left":[0,0,0,0,0],"id":89,"left_children":[1,3,-1,-1,-1],"loss_changes":[9.01582E-2,1.943717E-1,0E0,0E0,0E0],"parents":[2147483647,0,0,1,1],"right_children":[2,4,-1,-1,-1],"split_conditions":[1E0,1E0,8.35748E-2,-3.5772372E-2,7.845666E-2],"split_indices":[4,3,0,0,0],"split_type":[0,0,0,0,0],"sum_hessian":[5.0977144E0,3.844029E0,1.2536854E0,2.7521336E0,1.0918953E0],"tree_param":{"num_deleted":"0","num_feature":"8","num_nodes":"5","size_leaf_vector":"1"}},{"base_weights":[-9.7317226E-2,-1.104483E-1,-8.854281E-3,-1.130262E-2,-3.662184E-2],"categories":[],"categories_nodes":[],"categories_segments":[],"categories_sizes":[],"default_left":[0,0,0,0,0],"id":90,"left_children":[1,3,-1,-1,-1],"loss_changes":[3.119588E-3,1.7035007E-4,0E0,0E0,0E0],"parents":[2147483647,0,0,1,1],"right_children":[2,4,-1,-1,-1],"split_conditions":[8E0,1E0,-8.854281E-3,-1.130262E-2,-3.662184E-2],"split_indices":[1,1,0,0,0],"split_type":[0,0,0,0,0],"sum_hessian":[6.16523E0,4.6380424E0,1.5271873E0,1.2229617E0,3.415081E0],"tree_param":{"num_deleted":"0","num_feature":"8","num_nodes":"5","size_leaf_vector":"1"}},{"base_weights":[4.5962706E-3,-3.3278372E-2,2.7741533E-2,2.3734506E-2,-7.963781E-2,-1.55383E-1,1.9533655E-2,7.0820427E-3,-7.6508835E-2],"categories":[],"categories_nodes":[],"categories_segments":[],"categories_sizes":[],"default_left":[0,0,0,0,0,0,0,0,0],"id":91,"left_children":[1,3,-1,-1,5,7,-1,-1,-1],"loss_changes":[2.4392402E-2,3.3451095E-2,0E0,0E0,5.6028932E-2,6.0316905E-2,0E0,0E0,0E0],"parents":[2147483647,0,0,1,1,4,4,5,5],"right_children":[2,4,-1,-1,6,8,-1,-1,-1],"split_conditions":[1E0,6.794023E1,2.7741533E-2,2.3734506E-2,1E0,7.785994E-1,1.9533655E-2,7.0820427E-3,-7.6508835E-2],"split_indices":[6,0,0,0,2,7,0,0,0],"split_type":[0,0,0,0,0,0,0,0,0],"sum_hessian":[5.4042873E0,4.2107434E0,1.193544E0,1.0233022E0,3.1874413E0,2.044258E0,1.1431832E0,1.0039706E0,1.0402875E0],"tree_param":{"num_deleted":"0","num_feature":"8","num_nodes":"9","size_leaf_vector":"1"}},{"base_weights":[1.1380866E-1,9.395786E-3,8.335566E-2,8.779006E-3,-4.1917358E-3,-5.232422E-3,3.3565836E-3],"categories":[],"categories_nodes":[],"categories_segments":[],"categories_sizes":[],"default_left":[0,0,0,0,0,0,0],"id":92,"left_children":[1,3,-1,-1,5,-1,-1],"loss_changes":[9.790489E-2,1.3700962E-3,0E0,0E0,9.326205E-4,0E0,0E0],"parents":[2147483647,0,0,1,1,4,4],"right_children":[2,4,-1,-1,6,-1,-1],"split_conditions":[1E0,7.8992057E-1,8.335566E-2,8.779006E-3,8.533967E1,-5.232422E-3,3.3565836E-3],"split_indices":[5,7,0,0,0,0,0],"split_type":[0,0,0,0,0,0,0],"sum_hessian":[4.8684034E0,3.6209579E0,1.2474453E0,1.0020603E0,2.6188977E0,1.3349098E0,1.2839878E0],"tree_param":{"num_deleted":"0","num_feature":"8","num_nodes":"7","size_leaf_vector":"1"}},{"base_weights":[-8.593797E-2,-1.1165129E-1,-4.1330405E-2,-9.954391E-3,-4.0331304E-2,-2.0073492E-2,1.5859735E-4],"categories":[],"categories_nodes":[],"categories_segments":[],"categories_sizes":[],"default_left":[0,0,0,0,0,0,0],"id":93,"left_children":[1,3,5,-1,-1,-1,-1],"loss_changes":[3.4036487E-3,2.4172328E-3,4.472677E-3,0E0,0E0,0E0,0E0],"parents":[2147483647,0,0,1,1,2,2],"right_children":[2,4,6,-1,-1,-1,-1],"split_conditions":[4E0,1E0,8.992633E-1,-9.954391E-3,-4.0331304E-2,-2.0073492E-2,1.5859735E-4],"split_indices":[1,1,7,0,0,0,0],"split_type":[0,0,0,0,0,0,0],"sum_hessian":[5.990569E0,2.8466787E0,3.1438904E0,1.1933397E0,1.6533389E0,1.5798824E0,1.5640079E0],"tree_param":{"num_deleted":"0","num_feature":"8","num_nodes":"7","size_leaf_vector":"1"}},{"base_weights":[1.1524529E-3,-3.518619E-2,2.5901247E-2,2.2199666E-2,-8.0032535E-2,-1.5063266E-1,1.9154407E-2,9.104359E-3,-7.6378085E-2],"categories":[],"categories_nodes":[],"categories_segments":[],"categories_sizes":[],"default_left":[0,0,0,0,0,0,0,0,0],"id":94,"left_children":[1,3,-1,-1,5,7,-1,-1,-1],"loss_changes":[2.236468E-2,3.083103E-2,0E0,0E0,5.1126424E-2,6.490345E-2,0E0,0E0,0E0],"parents":[2147483647,0,0,1,1,4,4,5,5],"right_children":[2,4,-1,-1,6,8,-1,-1,-1],"split_conditions":[1E0,6.9984263E-1,2.5901247E-2,2.2199666E-2,1E0,7.414877E1,1.9154407E-2,9.104359E-3,-7.6378085E-2],"split_indices":[6,7,0,0,2,0,0,0,0],"split_type":[0,0,0,0,0,0,0,0,0],"sum_hessian":[5.2434955E0,4.086991E0,1.1565044E0,1.0006665E0,3.0863245E0,2.0389247E0,1.0473999E0,1.0022467E0,1.036678E0],"tree_param":{"num_deleted":"0","num_feature":"8","num_nodes":"9","size_leaf_vector":"1"}},{"base_weights":[1.0316726E-1,5.4499335E-3,7.984668E-2,7.945594E-3,-7.7292044E-3,-5.433906E-3,2.436668E-3],"categories":[],"categories_nodes":[],